~o
<STREAMINFO> 1 39
<VECSIZE> 39<NULLD><MFCC_D_A_Z_0><DIAGC>
~s "silst2"
<MEAN> 39
 -7.886580e+00 -9.019240e-01 -9.415985e-01 7.222955e+00 8.233908e+00 4.692570e+00 6.958228e+00 3.975889e+00 4.405913e+00 1.211790e-01 1.804479e+00 3.912372e+00 -2.033381e+01 -5.800457e-01 -3.833065e-01 -6.424274e-01 -2.221174e-01 -2.281030e-01 4.376086e-02 1.506285e-01 4.480306e-02 3.354075e-01 5.946138e-01 7.533416e-01 2.476336e-01 -1.439837e+00 -5.785673e-02 9.745538e-02 -4.361755e-02 -2.158301e-01 -1.833154e-01 -1.456792e-01 -1.504056e-01 -1.583269e-01 -4.531989e-02 1.263652e-01 1.098863e-01 -1.817963e-02 1.903580e-01
<VARIANCE> 39
 7.220541e+01 1.153308e+02 1.155747e+02 1.117502e+02 1.320098e+02 1.333605e+02 1.245381e+02 1.278360e+02 1.329670e+02 1.346381e+02 1.291863e+02 8.816094e+01 1.110930e+02 5.567516e+00 6.709200e+00 7.089690e+00 7.670025e+00 8.718670e+00 9.077659e+00 9.378931e+00 9.810738e+00 9.968821e+00 1.069225e+01 9.057829e+00 7.146727e+00 5.638857e+00 7.955163e-01 1.082541e+00 1.228682e+00 1.428307e+00 1.576280e+00 1.652426e+00 1.748497e+00 1.832563e+00 1.888759e+00 1.883124e+00 1.658685e+00 1.383210e+00 7.240658e-01
<GCONST> 1.648552e+02
~s "silst3"
<MEAN> 39
 -1.248457e+01 -4.651676e+00 -6.048441e+00 1.356220e+00 2.157307e+00 4.660678e-02 3.526181e+00 1.598943e+00 4.376266e+00 2.739435e+00 5.601746e+00 4.232175e+00 -2.377530e+01 -3.332110e-02 1.674763e-02 -4.457281e-02 -4.813109e-02 -4.674083e-02 5.003518e-03 -2.656916e-02 -5.696693e-02 -3.579676e-04 5.448037e-02 3.039509e-02 -1.596456e-02 -7.391942e-02 2.248221e-02 3.077819e-02 3.210583e-02 3.997146e-02 4.060075e-02 3.222375e-02 2.956017e-02 1.554786e-02 -8.872352e-04 -8.716144e-03 -2.150616e-02 -5.202304e-03 2.495301e-02
<VARIANCE> 39
 3.105112e+01 4.731882e+01 5.326280e+01 5.473569e+01 5.994826e+01 7.594865e+01 7.137183e+01 8.847032e+01 9.305021e+01 1.045503e+02 8.138457e+01 5.674871e+01 6.249099e+01 5.136253e-01 1.119126e+00 1.720840e+00 2.404174e+00 3.204675e+00 3.999860e+00 4.595921e+00 5.059964e+00 5.325176e+00 5.401303e+00 5.038588e+00 4.435003e+00 2.937143e-01 1.047089e-01 2.177166e-01 3.540543e-01 4.967580e-01 6.543633e-01 8.138884e-01 9.387212e-01 1.041970e+00 1.097713e+00 1.095877e+00 1.039015e+00 9.184771e-01 4.873814e-02
<GCONST> 1.286271e+02
~s "silst4"
<MEAN> 39
 -1.255227e+01 -1.615857e-01 -4.035606e+00 3.743756e+00 4.265338e+00 3.100632e+00 6.365066e+00 1.807534e+00 5.685335e+00 5.916176e+00 6.493182e+00 4.327121e+00 -2.511836e+01 6.902228e-01 1.289348e-01 6.840553e-01 -5.736520e-02 1.327200e-02 1.160070e-01 -2.444664e-03 -3.351032e-01 -8.319005e-01 -7.637989e-01 -7.700343e-01 -4.158953e-01 1.603358e+00 5.983788e-01 -9.350628e-04 3.276383e-01 -8.684961e-02 -6.275856e-02 -1.447793e-01 -1.988399e-01 -3.218702e-02 -3.294219e-01 -4.862962e-01 -5.286355e-01 -1.846628e-01 1.421734e+00
<VARIANCE> 39
 5.487327e+01 6.515685e+01 8.506144e+01 8.364858e+01 8.866339e+01 9.550311e+01 9.011463e+01 9.762072e+01 1.119069e+02 1.084072e+02 8.916344e+01 6.451279e+01 8.688055e+01 9.308220e+00 9.015546e+00 1.035363e+01 1.000363e+01 1.122975e+01 1.043188e+01 1.036462e+01 1.085627e+01 1.130864e+01 1.126153e+01 9.865062e+00 7.512985e+00 1.423230e+01 1.722248e+00 1.592432e+00 1.871901e+00 1.932999e+00 2.172873e+00 1.969866e+00 2.037039e+00 2.056741e+00 2.181518e+00 2.157343e+00 1.839540e+00 1.408342e+00 2.538571e+00
<GCONST> 1.683594e+02
~h "b"
<BEGINHMM>
<NUMSTATES> 5
<STATE> 2
<MEAN> 39
 7.733637e+00 1.713475e+01 9.716514e+00 1.412336e+01 1.100280e+01 4.655208e+00 -1.874364e+00 -1.073212e+01 -7.235016e+00 -5.536257e+00 -3.818408e+00 -6.568364e+00 -1.806853e+01 -1.833259e+00 3.372811e-01 7.409993e-01 1.454359e+00 9.252099e-01 6.739126e-01 1.842932e+00 1.139644e+00 4.563045e-01 -3.844066e-01 -2.896214e-01 3.660755e-01 -7.320696e-01 4.266558e-01 -1.799430e+00 -1.023320e+00 -2.046539e+00 -1.415138e+00 -4.167830e-01 -3.448787e-01 7.925119e-01 8.540762e-01 8.750355e-01 4.490926e-01 5.530808e-01 2.719581e+00
<VARIANCE> 39
 8.605388e+01 7.026009e+01 8.473357e+01 1.076332e+02 7.894423e+01 9.345213e+01 1.094973e+02 1.102636e+02 1.103976e+02 1.060593e+02 1.039509e+02 1.058174e+02 7.545201e+01 1.157436e+01 1.561454e+01 1.246157e+01 1.835501e+01 1.213406e+01 1.170715e+01 1.126135e+01 1.330473e+01 1.452286e+01 1.363303e+01 1.152150e+01 1.012211e+01 2.869045e+01 1.870575e+00 1.720529e+00 2.491037e+00 3.157989e+00 2.470404e+00 2.479731e+00 2.496266e+00 2.607139e+00 2.744498e+00 2.509813e+00 2.418900e+00 2.230014e+00 2.325108e+00
<GCONST> 1.761798e+02
<STATE> 3
<MEAN> 39
 -1.877532e+00 5.882358e+00 3.624747e+00 9.892294e+00 8.835748e+00 5.836821e+00 5.558152e+00 2.003850e-01 3.201491e+00 1.876695e+00 1.485433e+00 8.756508e-01 -1.131478e+01 2.538110e+00 -2.807619e+00 -1.176935e+00 -3.665048e+00 -3.007341e+00 -8.494120e-01 -7.726145e-01 1.455966e+00 1.511831e+00 1.607996e+00 8.189325e-01 1.284910e+00 7.728948e+00 1.776744e+00 -2.230725e-01 -1.169071e-01 -1.722415e+00 -1.200935e+00 -4.697494e-01 -1.383743e+00 -7.310120e-01 -7.912635e-01 -2.446617e-01 -3.045653e-01 -5.899767e-01 1.662016e+00
<VARIANCE> 39
 9.493081e+01 8.559039e+01 8.400706e+01 1.110259e+02 7.979881e+01 9.698907e+01 9.913872e+01 1.206346e+02 1.271470e+02 1.090076e+02 9.758952e+01 7.925973e+01 1.919470e+02 2.049684e+01 1.369073e+01 2.316202e+01 2.195471e+01 1.692462e+01 1.793810e+01 1.749001e+01 1.741069e+01 1.883740e+01 1.720230e+01 1.579357e+01 1.398227e+01 2.433842e+01 2.076896e+00 2.723429e+00 3.558035e+00 4.074961e+00 2.894739e+00 3.618129e+00 3.037821e+00 3.280872e+00 3.687431e+00 3.035703e+00 3.349545e+00 2.230897e+00 3.656656e+00
<GCONST> 1.843628e+02
<STATE> 4
<MEAN> 39
 1.278839e+01 3.494361e+00 1.484805e+00 -2.152876e+00 -1.304457e+00 2.226921e+00 -1.138498e+00 -2.298023e+00 1.813478e+00 3.120994e+00 1.529027e+00 4.232837e-01 9.771642e+00 4.903553e+00 -3.461740e+00 -1.662836e+00 -7.662497e+00 -5.114609e+00 -1.069497e+00 -3.166610e+00 -5.791310e-02 -4.300486e-01 5.529612e-01 -6.942645e-02 -7.906982e-01 8.359911e+00 -5.088822e-01 9.755927e-02 -2.002931e-02 -2.400553e-01 2.231167e-01 1.798992e-01 -2.982188e-01 -4.442531e-01 -6.732340e-01 -5.980282e-01 -4.235908e-01 -6.326742e-01 -1.625283e+00
<VARIANCE> 39
 1.050213e+02 9.035947e+01 1.903528e+02 2.609809e+02 1.292732e+02 2.144119e+02 1.398225e+02 1.369323e+02 1.333865e+02 1.266485e+02 1.004694e+02 8.989109e+01 8.750469e+01 1.461555e+01 2.129925e+01 3.627043e+01 3.064304e+01 2.521692e+01 3.327553e+01 2.558500e+01 2.710004e+01 2.966495e+01 2.268366e+01 2.507971e+01 1.916887e+01 1.702396e+01 2.230165e+00 2.013175e+00 2.056295e+00 3.376937e+00 2.339407e+00 2.983145e+00 2.674360e+00 2.941254e+00 2.874930e+00 2.708041e+00 2.502545e+00 1.959925e+00 2.272966e+00
<GCONST> 1.885113e+02
<TRANSP> 5
 0.000000e+00 1.000000e+00 0.000000e+00 0.000000e+00 0.000000e+00
 0.000000e+00 6.366166e-01 3.633834e-01 0.000000e+00 0.000000e+00
 0.000000e+00 0.000000e+00 4.287310e-01 5.712690e-01 0.000000e+00
 0.000000e+00 0.000000e+00 0.000000e+00 2.109800e-01 7.890199e-01
 0.000000e+00 0.000000e+00 0.000000e+00 0.000000e+00 0.000000e+00
<ENDHMM>
~h "d"
<BEGINHMM>
<NUMSTATES> 5
<STATE> 2
<MEAN> 39
 5.132705e+00 1.470614e+01 1.371924e+01 1.551338e+01 4.517414e+00 -1.595463e+00 -2.662358e+00 -7.308541e+00 -4.964991e+00 -6.081643e+00 -5.833330e+00 -4.870698e+00 -1.575625e+01 -2.732340e+00 2.785314e-02 -1.022882e+00 4.122409e-01 3.062213e+00 2.369688e+00 1.810532e+00 1.937486e-01 4.239530e-01 3.583271e-01 5.432083e-01 -1.350069e-01 -1.471482e+00 -1.684998e-01 -1.708777e+00 -6.147553e-01 -1.872851e+00 -1.321835e+00 -4.657584e-01 -9.187978e-04 1.019653e+00 5.312784e-01 7.246398e-01 6.901514e-01 7.776603e-01 2.370960e+00
<VARIANCE> 39
 7.848559e+01 9.445988e+01 9.266041e+01 1.033742e+02 1.208087e+02 1.067579e+02 1.061797e+02 1.105630e+02 1.145064e+02 1.064838e+02 9.295276e+01 9.275362e+01 1.046437e+02 9.467958e+00 2.325397e+01 1.416648e+01 2.276276e+01 1.783767e+01 1.515154e+01 1.474087e+01 1.813116e+01 1.667585e+01 1.416825e+01 1.256392e+01 1.319958e+01 2.910962e+01 1.588009e+00 2.164390e+00 2.042175e+00 2.510858e+00 2.873912e+00 2.529370e+00 2.838666e+00 2.801599e+00 2.613487e+00 2.422817e+00 2.239883e+00 2.152073e+00 2.624195e+00
<GCONST> 1.793271e+02
<STATE> 3
<MEAN> 39
 -7.263877e+00 2.529487e+00 6.395692e+00 4.511755e+00 6.180904e+00 3.518826e+00 4.069350e+00 -7.135922e-01 6.661508e-01 7.261813e-01 1.719445e+00 1.385252e+00 -4.156447e+00 -1.428298e+00 -2.166067e+00 -4.608032e-01 -3.030482e+00 -1.425274e+00 -9.204849e-01 5.132874e-01 2.022132e+00 1.314459e+00 1.217023e+00 1.110287e+00 1.837012e+00 5.148798e+00 1.603868e+00 1.782931e-01 3.070373e-01 -9.463838e-02 -1.449429e+00 -1.130229e+00 -9.123916e-01 -1.816432e-02 -2.565476e-01 -3.180940e-01 -5.478742e-01 -1.841742e-01 4.493345e-01
<VARIANCE> 39
 1.598232e+02 1.506314e+02 1.417135e+02 1.676535e+02 1.513477e+02 1.382164e+02 1.454361e+02 1.277378e+02 1.298338e+02 1.188530e+02 1.133356e+02 8.904375e+01 2.481712e+02 1.885337e+01 1.707527e+01 1.703826e+01 1.639837e+01 1.791531e+01 1.875447e+01 1.822552e+01 1.764062e+01 1.717619e+01 1.493829e+01 1.392179e+01 1.143647e+01 2.790042e+01 3.165257e+00 3.516160e+00 3.502489e+00 4.145866e+00 3.820381e+00 3.555852e+00 3.814668e+00 3.342292e+00 3.319611e+00 3.113928e+00 3.045936e+00 2.508116e+00 5.170576e+00
<GCONST> 1.891928e+02
<STATE> 4
<MEAN> 39
 -9.842709e-01 3.163827e+00 9.427153e+00 1.767719e+00 -2.710044e+00 -4.800884e+00 -1.847274e-01 1.314635e+00 1.170717e+00 8.467182e-02 -2.823274e-01 3.221611e+00 2.933118e+00 1.846433e+00 -1.626543e+00 -7.353033e-01 -1.457632e+00 -2.692435e+00 -1.596243e+00 -9.149238e-01 1.424318e+00 8.390214e-01 2.888547e-01 -3.286247e-01 3.023454e-01 2.074185e+00 6.334122e-01 8.871629e-02 -4.311374e-01 4.643815e-01 1.593293e-01 3.427303e-01 -1.553576e-01 -4.234155e-01 -3.015247e-01 -2.570780e-01 -3.225549e-01 -6.453773e-01 -1.015286e+00
<VARIANCE> 39
 1.526779e+02 1.525939e+02 1.575896e+02 1.760829e+02 2.066679e+02 1.829678e+02 1.768058e+02 1.785663e+02 1.629671e+02 1.298268e+02 1.215397e+02 1.049468e+02 2.336680e+02 2.745785e+01 1.473686e+01 1.969277e+01 2.165310e+01 2.533101e+01 2.276699e+01 2.552285e+01 1.881516e+01 2.097484e+01 1.813813e+01 1.913745e+01 1.414186e+01 2.262600e+01 2.129419e+00 3.197899e+00 2.592056e+00 3.387183e+00 3.672472e+00 3.735973e+00 3.318147e+00 3.486701e+00 3.125437e+00 2.778250e+00 2.580672e+00 2.328998e+00 4.217579e+00
<GCONST> 1.915354e+02
<TRANSP> 5
 0.000000e+00 1.000000e+00 0.000000e+00 0.000000e+00 0.000000e+00
 0.000000e+00 5.499117e-01 4.500883e-01 0.000000e+00 0.000000e+00
 0.000000e+00 0.000000e+00 3.764101e-01 6.235899e-01 0.000000e+00
 0.000000e+00 0.000000e+00 0.000000e+00 2.562938e-01 7.437062e-01
 0.000000e+00 0.000000e+00 0.000000e+00 0.000000e+00 0.000000e+00
<ENDHMM>
~h "f"
<BEGINHMM>
<NUMSTATES> 5
<STATE> 2
<MEAN> 39
 -1.056941e+01 4.497911e+00 3.678927e+00 1.306951e+01 7.994603e+00 7.050924e+00 8.198093e+00 2.957854e+00 3.313501e+00 1.191308e+00 -6.846727e-01 1.862454e+00 -1.875731e+00 -7.144403e+00 -1.100778e+00 -1.652544e+00 1.425692e+00 1.138400e+00 1.608077e+00 1.416922e+00 1.834950e+00 2.018831e+00 1.434886e+00 1.636747e+00 1.690172e+00 -2.081595e+00 6.814911e-01 -8.388920e-01 -6.218697e-01 -1.472011e+00 -1.250519e+00 -7.770625e-01 -8.956243e-01 -4.458360e-01 -3.167429e-01 6.742656e-02 -3.743029e-03 -1.384194e-01 6.669967e-01
<VARIANCE> 39
 1.582622e+02 6.660350e+01 1.023181e+02 8.328490e+01 9.360580e+01 1.154919e+02 1.009464e+02 9.597507e+01 1.045383e+02 9.376672e+01 8.980807e+01 7.466502e+01 7.483498e+01 1.575373e+01 1.092980e+01 1.735676e+01 1.746209e+01 1.727822e+01 1.664714e+01 1.520374e+01 1.613140e+01 1.595085e+01 1.361808e+01 1.445953e+01 1.013897e+01 9.455290e+00 2.962210e+00 2.064713e+00 2.078033e+00 2.226475e+00 2.177944e+00 2.213835e+00 2.248869e+00 2.609753e+00 2.503971e+00 2.185165e+00 2.073859e+00 1.756594e+00 1.203125e+00
<GCONST> 1.752785e+02
<STATE> 3
<MEAN> 39
 -2.356100e+01 -2.441636e+00 -5.038814e+00 8.882062e+00 3.469640e+00 5.610534e+00 5.170002e+00 2.791829e+00 4.643016e+00 4.351358e+00 2.411750e+00 4.786795e+00 -4.137577e+00 7.395053e-03 -5.371350e-01 -5.074794e-01 -2.857245e-01 -1.256740e-01 -7.412037e-02 -1.110371e-01 -1.384725e-01 -1.226347e-04 1.164111e-01 6.633183e-02 -9.059250e-04 3.405121e-01 1.634174e+00 3.395548e-01 4.122792e-01 -1.325090e-01 8.825737e-02 -1.664810e-01 -8.692583e-02 -1.511984e-01 -2.256390e-01 -2.744754e-01 -2.843116e-01 -3.335810e-01 4.173774e-01
<VARIANCE> 39
 5.628315e+01 5.565534e+01 6.707610e+01 6.312521e+01 6.565488e+01 7.171071e+01 7.439514e+01 7.336208e+01 9.010716e+01 7.280575e+01 8.284877e+01 5.712915e+01 7.275375e+01 7.622725e+00 3.811798e+00 5.318872e+00 4.968674e+00 5.953748e+00 5.962752e+00 6.492862e+00 6.469337e+00 6.637426e+00 6.427296e+00 5.872772e+00 5.252800e+00 5.918942e+00 1.773501e+00 9.479112e-01 1.227747e+00 1.341996e+00 1.415274e+00 1.522947e+00 1.582363e+00 1.597491e+00 1.694845e+00 1.542824e+00 1.489573e+00 1.246667e+00 1.102382e+00
<GCONST> 1.539810e+02
<STATE> 4
<MEAN> 39
 -1.068303e+01 -4.035029e-01 -2.161426e+00 8.308064e+00 5.916327e+00 5.952929e+00 6.806568e+00 2.382657e+00 4.415084e+00 3.226508e+00 5.693516e-01 2.452565e+00 -8.958182e-02 9.522738e+00 6.981480e-01 -2.101475e-01 -3.451716e+00 -1.857960e+00 -1.718872e+00 -2.306638e+00 -1.309205e+00 -1.648828e+00 -1.618871e+00 -1.453017e+00 -1.965860e+00 2.574034e+00 1.215910e+00 -4.934116e-01 -5.903571e-01 -1.334411e+00 -1.004555e+00 -5.151013e-01 -1.044043e+00 -1.673169e-01 -4.537764e-01 -3.146959e-01 -8.505470e-02 -3.061049e-01 6.943188e-01
<VARIANCE> 39
 1.764963e+02 8.205710e+01 1.135929e+02 9.720652e+01 9.141638e+01 1.004848e+02 9.963974e+01 9.490578e+01 9.832104e+01 8.430163e+01 8.887243e+01 7.151176e+01 6.573291e+01 1.534665e+01 1.312349e+01 1.890480e+01 2.098148e+01 1.762834e+01 2.129922e+01 1.770767e+01 1.520844e+01 1.728787e+01 1.302693e+01 1.533165e+01 1.074213e+01 1.226542e+01 3.597283e+00 2.164885e+00 1.988576e+00 2.422774e+00 2.391553e+00 2.762524e+00 2.551831e+00 2.566690e+00 2.658443e+00 2.229266e+00 2.314459e+00 1.849081e+00 1.401297e+00
<GCONST> 1.776159e+02
<TRANSP> 5
 0.000000e+00 1.000000e+00 0.000000e+00 0.000000e+00 0.000000e+00
 0.000000e+00 5.682687e-01 4.317313e-01 0.000000e+00 0.000000e+00
 0.000000e+00 0.000000e+00 8.171445e-01 1.828555e-01 0.000000e+00
 0.000000e+00 0.000000e+00 0.000000e+00 5.863242e-01 4.136758e-01
 0.000000e+00 0.000000e+00 0.000000e+00 0.000000e+00 0.000000e+00
<ENDHMM>
~h "g"
<BEGINHMM>
<NUMSTATES> 5
<STATE> 2
<MEAN> 39
 4.502984e+00 1.469548e+01 1.344370e+01 1.520174e+01 2.998380e+00 -4.365290e+00 -1.892155e+00 -8.690261e+00 -9.907949e+00 -3.844404e+00 -2.690077e+00 -5.622750e+00 -1.670128e+01 -2.313544e+00 -1.105908e+00 -2.703306e+00 3.099322e-01 3.391815e+00 2.228853e+00 1.088417e+00 3.647000e-01 2.261184e+00 3.093774e-01 -6.919944e-02 8.755966e-01 -1.573051e+00 -8.073183e-02 -2.016677e+00 -8.844044e-01 -1.613917e+00 -9.268393e-01 -3.999104e-01 -1.599842e-01 8.224339e-01 3.366719e-01 9.161338e-01 2.053317e-01 5.717931e-01 2.824490e+00
<VARIANCE> 39
 6.804273e+01 7.560023e+01 1.350064e+02 8.806227e+01 1.447864e+02 1.315097e+02 1.364348e+02 1.527771e+02 1.580865e+02 1.218729e+02 1.238651e+02 1.042655e+02 7.734827e+01 8.445086e+00 2.781403e+01 2.159165e+01 1.918576e+01 2.178958e+01 1.797265e+01 1.726831e+01 2.307764e+01 1.851337e+01 2.067801e+01 1.617087e+01 1.266039e+01 2.879239e+01 1.733836e+00 2.565821e+00 3.036667e+00 2.322732e+00 3.667635e+00 3.237241e+00 3.234884e+00 3.343426e+00 3.322224e+00 3.038416e+00 2.583233e+00 2.244044e+00 2.286850e+00
<GCONST> 1.843568e+02
<STATE> 3
<MEAN> 39
 -5.423479e+00 -6.474745e+00 -5.110876e+00 5.580891e+00 1.062914e+01 1.123406e+00 1.832098e+00 -1.695916e+00 7.827361e-01 6.697992e+00 -3.269986e-01 2.600326e+00 -4.148615e+00 5.539201e-01 -1.836629e+00 -9.885214e-01 -2.356094e+00 -1.171525e+00 -1.205238e+00 -1.008624e+00 1.060742e-01 2.873434e-01 1.715957e+00 -2.317926e-01 8.714622e-01 5.877767e+00 1.674740e+00 1.652202e+00 1.714092e+00 -5.207204e-02 -1.879947e+00 -1.093206e+00 -9.192407e-01 -4.524793e-01 -1.033109e+00 -7.604166e-01 -7.062944e-03 -7.410836e-01 4.291730e-01
<VARIANCE> 39
 1.182517e+02 1.573624e+02 2.920674e+02 1.691197e+02 2.168405e+02 1.966878e+02 1.910147e+02 1.850258e+02 2.115857e+02 1.488698e+02 1.266817e+02 9.934310e+01 1.802929e+02 1.741911e+01 2.505579e+01 2.908415e+01 1.948293e+01 2.561500e+01 1.990911e+01 1.894835e+01 2.050472e+01 1.965390e+01 1.670805e+01 1.533159e+01 1.289829e+01 1.691234e+01 2.369407e+00 3.897436e+00 3.772861e+00 4.106268e+00 4.397901e+00 4.103973e+00 3.969782e+00 4.404049e+00 4.380320e+00 3.783230e+00 4.034325e+00 2.781087e+00 4.042206e+00
<GCONST> 1.943065e+02
<STATE> 4
<MEAN> 39
 4.135039e+00 4.745561e+00 9.703893e+00 1.393319e+00 -5.505236e+00 -7.613418e+00 -4.408408e+00 -6.973042e+00 -7.540976e+00 4.708949e+00 -1.228854e+00 -6.235008e-01 7.465058e+00 4.352540e+00 4.466422e-01 1.701842e+00 -2.532113e+00 -5.691919e+00 -2.667222e+00 -2.222410e+00 5.278159e-01 -1.340554e+00 -8.029647e-01 8.289880e-01 -1.100617e+00 4.014630e+00 1.540970e-01 -8.021863e-01 -8.172776e-01 4.607134e-02 2.743731e-01 4.041284e-01 2.994252e-01 8.101109e-01 4.269027e-01 -5.227369e-01 1.700384e-01 -2.353917e-01 -7.805695e-01
<VARIANCE> 39
 1.369758e+02 1.087622e+02 3.038550e+02 2.110627e+02 3.507415e+02 2.040778e+02 1.791557e+02 2.135319e+02 1.858374e+02 1.545770e+02 1.557177e+02 9.639932e+01 1.050706e+02 1.641011e+01 1.839333e+01 1.769600e+01 2.069981e+01 2.212623e+01 2.130661e+01 2.298413e+01 2.397202e+01 2.735408e+01 2.200916e+01 2.336785e+01 1.489038e+01 8.415728e+00 1.888011e+00 2.793972e+00 3.066556e+00 2.490394e+00 4.644637e+00 3.377166e+00 3.202801e+00 3.523303e+00 3.436838e+00 3.211320e+00 2.920231e+00 2.099724e+00 1.733608e+00
<GCONST> 1.907226e+02
<TRANSP> 5
 0.000000e+00 1.000000e+00 0.000000e+00 0.000000e+00 0.000000e+00
 0.000000e+00 6.486162e-01 3.513838e-01 0.000000e+00 0.000000e+00
 0.000000e+00 0.000000e+00 5.737718e-01 4.262282e-01 0.000000e+00
 0.000000e+00 0.000000e+00 0.000000e+00 4.143279e-01 5.856721e-01
 0.000000e+00 0.000000e+00 0.000000e+00 0.000000e+00 0.000000e+00
<ENDHMM>
~h "k"
<BEGINHMM>
<NUMSTATES> 5
<STATE> 2
<MEAN> 39
 -7.208129e+00 2.285060e+00 -1.424290e+00 7.205403e+00 4.616218e+00 9.608472e-01 5.453827e+00 3.102052e+00 3.321569e+00 5.008811e+00 4.885379e+00 2.850231e+00 -2.150569e+01 -2.400363e+00 -2.671989e+00 -3.036724e+00 -6.604159e-01 1.355136e+00 1.099515e+00 6.488522e-01 1.072689e+00 1.969258e+00 1.412585e+00 6.550803e-01 1.186423e+00 -4.789297e-01 6.713389e-01 -6.817726e-01 -9.664392e-02 -6.891596e-01 -2.867500e-01 -4.994390e-01 -2.711323e-01 5.311592e-02 -6.068414e-01 -6.626339e-02 -6.670184e-01 -1.440293e-01 3.057672e+00
<VARIANCE> 39
 7.095998e+01 6.535734e+01 1.118820e+02 9.967080e+01 1.139697e+02 1.262872e+02 1.188333e+02 1.493329e+02 1.570505e+02 1.213453e+02 1.074457e+02 8.310561e+01 8.959376e+01 1.429655e+01 1.365559e+01 1.847153e+01 1.690687e+01 2.118721e+01 2.124056e+01 1.763025e+01 2.210661e+01 2.521854e+01 1.586485e+01 1.877366e+01 1.140075e+01 4.665216e+01 1.926894e+00 2.613284e+00 3.188459e+00 3.216196e+00 3.430126e+00 3.249989e+00 2.875988e+00 3.496644e+00 3.817880e+00 2.895260e+00 2.689933e+00 1.982772e+00 2.853078e+00
<GCONST> 1.843268e+02
<STATE> 3
<MEAN> 39
 -7.675138e+00 -1.109365e+01 -1.321518e+01 2.792029e+00 1.071857e+01 -4.538880e-02 4.326547e+00 7.376829e+00 2.428988e+00 9.683238e+00 1.350770e-01 5.368763e+00 9.698812e-01 -4.019688e-01 -3.336683e-01 2.225851e-01 1.314405e-01 1.277815e+00 2.830937e-02 7.570795e-01 8.028234e-01 5.473246e-01 6.586124e-01 -9.380173e-01 2.941681e-01 5.331571e+00 2.080306e-01 1.619444e+00 1.621573e+00 4.193236e-01 -4.081236e-01 2.871145e-01 1.731928e-01 -6.868501e-01 -6.991291e-02 -7.693769e-01 2.283919e-01 -4.346714e-01 -1.212419e+00
<VARIANCE> 39
 9.415539e+01 1.048160e+02 2.093638e+02 2.088702e+02 2.028041e+02 2.172557e+02 2.035537e+02 1.881105e+02 2.142646e+02 1.381402e+02 1.240751e+02 1.012595e+02 1.432857e+02 1.294440e+01 1.373799e+01 1.951984e+01 1.634831e+01 1.649774e+01 1.713182e+01 1.570961e+01 1.713819e+01 1.741799e+01 1.381335e+01 1.330223e+01 9.979953e+00 2.304723e+01 2.432343e+00 2.675743e+00 2.716320e+00 3.434169e+00 3.630668e+00 3.918720e+00 3.677655e+00 3.880935e+00 4.130354e+00 3.120996e+00 2.955989e+00 2.444237e+00 4.080694e+00
<GCONST> 1.885607e+02
<STATE> 4
<MEAN> 39
 -8.145566e+00 -3.911533e+00 -1.625559e+00 6.104731e+00 1.431078e+01 5.472334e+00 8.929322e+00 3.552891e+00 4.870541e+00 5.538006e+00 -9.949178e-01 3.073780e+00 3.560620e+00 2.880181e+00 1.512814e+00 1.181556e+00 -8.789053e-01 -8.385148e-01 7.652524e-01 -9.004053e-01 -2.251282e+00 -1.502667e+00 -2.576966e+00 -1.080422e+00 -1.887718e+00 9.448495e-01 1.224767e+00 -1.861984e-01 -7.176332e-01 -9.047849e-01 -9.802330e-01 -3.636355e-01 -9.132475e-01 -3.501322e-01 -5.641509e-01 -3.487878e-01 -5.176632e-02 -4.082369e-01 5.589775e-02
<VARIANCE> 39
 1.234979e+02 1.212755e+02 2.251990e+02 1.593360e+02 2.458468e+02 2.076532e+02 1.884601e+02 1.789273e+02 1.723540e+02 1.464011e+02 1.377111e+02 1.049232e+02 9.016872e+01 2.064873e+01 1.300443e+01 1.516797e+01 1.696041e+01 2.081890e+01 2.078127e+01 2.206813e+01 1.982268e+01 2.058138e+01 1.618203e+01 1.608593e+01 1.245548e+01 8.290168e+00 1.905654e+00 2.370799e+00 2.449020e+00 2.855854e+00 2.930516e+00 3.248475e+00 3.160393e+00 3.583385e+00 3.420442e+00 3.108419e+00 2.908087e+00 2.217910e+00 2.567395e+00
<GCONST> 1.870836e+02
<TRANSP> 5
 0.000000e+00 1.000000e+00 0.000000e+00 0.000000e+00 0.000000e+00
 0.000000e+00 6.881173e-01 3.118827e-01 0.000000e+00 0.000000e+00
 0.000000e+00 0.000000e+00 6.029153e-01 3.970847e-01 0.000000e+00
 0.000000e+00 0.000000e+00 0.000000e+00 6.614851e-01 3.385149e-01
 0.000000e+00 0.000000e+00 0.000000e+00 0.000000e+00 0.000000e+00
<ENDHMM>
~h "l"
<BEGINHMM>
<NUMSTATES> 5
<STATE> 2
<MEAN> 39
 1.700140e+01 3.453284e+00 -1.261672e+01 -2.567940e+01 4.220520e+00 1.103217e+01 -1.093355e+01 -1.048961e+01 1.010866e+00 1.233986e+00 -1.473125e+00 -5.764730e+00 1.349933e+01 1.349530e+00 2.107600e+00 -9.989553e-01 -3.162784e+00 5.246676e-01 1.859669e+00 -4.671952e-01 -1.743554e+00 -1.491602e+00 -2.842685e-01 1.606937e+00 4.457341e-01 -6.029297e-01 -5.015364e-01 -2.571631e-01 4.961365e-01 1.012211e+00 -3.223105e-01 -6.054371e-01 4.555711e-01 7.630318e-01 -3.786316e-02 -3.472352e-01 -4.440402e-02 3.478500e-01 -2.331361e-01
<VARIANCE> 39
 4.306885e+01 1.711239e+02 1.544279e+02 2.711946e+02 1.928605e+02 2.382413e+02 2.696201e+02 2.020629e+02 2.250766e+02 1.912424e+02 1.856488e+02 1.431330e+02 9.701105e+01 7.641517e+00 8.852610e+00 9.305082e+00 2.100433e+01 1.383113e+01 1.750125e+01 1.864582e+01 1.578605e+01 1.492239e+01 1.536628e+01 1.482595e+01 1.314413e+01 8.679876e+00 1.128152e+00 1.653664e+00 1.349436e+00 2.962632e+00 2.298447e+00 2.252330e+00 2.402082e+00 2.734023e+00 3.228680e+00 2.648726e+00 2.497439e+00 2.013950e+00 8.920485e-01
<GCONST> 1.810131e+02
<STATE> 3
<MEAN> 39
 1.933807e+01 1.251208e+01 -1.145746e+01 -3.365465e+01 -2.088738e-01 1.568524e+01 -3.949840e+00 -9.863212e+00 -5.291130e+00 -4.400713e+00 3.659333e+00 9.092322e-01 8.270451e+00 -3.561250e-01 5.858159e-02 3.017675e-01 1.304155e+00 5.434102e-01 -7.135459e-01 -2.931862e-01 1.696155e-01 1.643458e-01 1.608114e-01 -1.469252e-01 -2.368138e-01 -4.877350e-01 -6.218216e-01 -7.800055e-01 2.369194e-01 1.319119e+00 3.010238e-01 -4.583449e-01 -1.390224e-01 3.084917e-01 6.931003e-01 4.741471e-01 -4.275653e-01 -4.245847e-01 8.064561e-02
<VARIANCE> 39
 3.359956e+01 1.036718e+02 1.394076e+02 2.426646e+02 1.922793e+02 1.857331e+02 2.564119e+02 1.990445e+02 1.814628e+02 1.718117e+02 1.439757e+02 1.399656e+02 7.057858e+01 3.312545e+00 1.075152e+01 6.970570e+00 2.021575e+01 1.059140e+01 1.056093e+01 1.249304e+01 1.113066e+01 1.269101e+01 1.339980e+01 9.614239e+00 8.712535e+00 8.590742e+00 9.919293e-01 1.163995e+00 1.184128e+00 2.628862e+00 1.826900e+00 2.106030e+00 2.231593e+00 2.590030e+00 2.418994e+00 2.195370e+00 2.158275e+00 1.726166e+00 9.442386e-01
<GCONST> 1.732973e+02
<STATE> 4
<MEAN> 39
 1.473817e+01 3.615327e+00 -9.756760e+00 -1.852065e+01 5.771035e+00 5.078384e+00 -1.390350e+01 -7.492948e+00 3.868565e+00 1.126427e+00 -3.145673e+00 -5.873145e+00 1.140080e+01 -2.156668e+00 -2.367397e+00 2.397480e+00 4.863790e+00 -1.019452e+00 -3.288514e+00 6.089637e-01 3.399136e+00 1.779688e+00 -6.897368e-01 -2.046799e+00 5.555923e-02 8.765879e-02 -5.277694e-01 4.564998e-02 6.794766e-01 2.615324e-01 -8.753904e-01 -5.652992e-02 1.112689e+00 4.847526e-01 -7.593928e-01 -5.234370e-01 4.117059e-01 6.596537e-01 -3.408039e-01
<VARIANCE> 39
 4.312770e+01 1.507787e+02 1.545029e+02 2.135603e+02 1.638184e+02 2.655192e+02 2.903406e+02 2.442272e+02 2.621331e+02 2.151159e+02 1.852323e+02 1.490485e+02 1.356181e+02 8.705078e+00 1.290526e+01 1.358985e+01 2.829770e+01 2.305636e+01 1.782669e+01 2.296212e+01 2.031638e+01 2.536585e+01 2.034673e+01 1.717688e+01 1.673137e+01 1.621280e+01 1.240549e+00 1.868013e+00 1.836166e+00 3.022250e+00 2.618452e+00 3.158386e+00 3.396346e+00 4.169839e+00 5.151814e+00 3.795977e+00 3.364673e+00 2.430780e+00 1.123597e+00
<GCONST> 1.888259e+02
<TRANSP> 5
 0.000000e+00 1.000000e+00 0.000000e+00 0.000000e+00 0.000000e+00
 0.000000e+00 4.743213e-01 5.256787e-01 0.000000e+00 0.000000e+00
 0.000000e+00 0.000000e+00 7.045222e-01 2.954779e-01 0.000000e+00
 0.000000e+00 0.000000e+00 0.000000e+00 5.178248e-01 4.821751e-01
 0.000000e+00 0.000000e+00 0.000000e+00 0.000000e+00 0.000000e+00
<ENDHMM>
~h "m"
<BEGINHMM>
<NUMSTATES> 5
<STATE> 2
<MEAN> 39
 1.468526e+01 8.057766e+00 4.003012e+00 1.147112e+01 5.411211e+00 -1.442513e+00 -9.210406e+00 -1.399978e+01 -1.233538e+01 -3.240793e+00 6.851252e-01 -8.513159e+00 -2.982718e+00 -1.741605e-01 3.091181e+00 3.509286e+00 4.622416e+00 2.883594e-01 -2.858999e+00 -1.513143e+00 -3.630621e+00 -3.947624e+00 8.428785e-01 5.876418e-01 -1.572662e+00 -2.124187e+00 -2.468612e-01 -1.099757e+00 -6.137803e-01 -1.371268e+00 -2.428367e-01 5.093137e-01 1.828385e-01 1.021768e+00 1.072022e+00 -1.052388e-01 -3.294027e-01 4.027242e-01 1.103238e+00
<VARIANCE> 39
 4.706042e+01 8.308766e+01 9.946180e+01 1.173176e+02 1.191390e+02 1.795811e+02 1.872454e+02 1.553582e+02 1.735194e+02 1.494066e+02 1.536384e+02 1.309237e+02 6.696059e+01 1.221993e+01 8.679044e+00 1.508041e+01 1.558263e+01 1.350800e+01 1.402303e+01 1.545250e+01 1.486270e+01 1.833762e+01 1.701167e+01 1.495531e+01 1.342965e+01 1.206886e+01 9.017335e-01 1.096417e+00 2.235759e+00 2.042309e+00 2.051187e+00 2.128493e+00 2.349545e+00 2.398577e+00 2.985358e+00 2.380740e+00 2.199045e+00 1.888986e+00 7.412687e-01
<GCONST> 1.759747e+02
<STATE> 3
<MEAN> 39
 1.465730e+01 9.827423e+00 7.953646e+00 1.395256e+01 3.319410e+00 -5.487761e+00 -1.142582e+01 -1.556636e+01 -1.421846e+01 -1.957271e+00 7.611498e-02 -1.026374e+01 -3.125790e+00 3.193685e-02 1.872169e-02 1.605175e-01 -2.304813e-01 -3.624731e-01 -4.938691e-02 8.271232e-02 2.037372e-01 1.692411e-01 -1.167093e-01 -2.183260e-01 9.881742e-02 2.652696e-01 -2.453340e-02 -1.095711e+00 -1.073679e+00 -1.728691e+00 -2.359890e-01 9.468149e-01 5.817785e-01 1.399693e+00 1.410710e+00 -3.373228e-01 -2.841757e-01 6.589307e-01 9.187263e-01
<VARIANCE> 39
 2.646345e+01 6.733873e+01 8.176833e+01 1.078073e+02 1.356918e+02 1.815934e+02 1.858513e+02 1.642634e+02 1.794224e+02 1.738090e+02 1.911692e+02 1.632249e+02 4.297572e+01 3.584417e+00 5.190341e+00 5.635666e+00 6.879730e+00 6.118734e+00 7.104635e+00 7.929175e+00 8.244698e+00 8.810035e+00 7.596621e+00 7.498212e+00 7.412611e+00 5.429115e+00 9.760713e-01 1.228271e+00 2.332352e+00 2.660894e+00 1.955102e+00 2.133950e+00 2.313766e+00 2.644638e+00 3.276048e+00 2.618613e+00 2.413316e+00 2.438994e+00 8.440377e-01
<GCONST> 1.665878e+02
<STATE> 4
<MEAN> 39
 1.566650e+01 6.351718e+00 3.003569e+00 7.930606e+00 2.427390e+00 -1.455071e+00 -9.087317e+00 -1.185780e+01 -9.794169e+00 -3.843350e+00 -5.674026e-01 -7.884475e+00 5.588648e-01 1.316985e-01 -3.386515e+00 -2.652077e+00 -5.557422e+00 -1.356837e+00 2.445447e+00 1.325134e+00 4.319345e+00 4.333786e+00 -1.089174e+00 -1.223717e+00 1.839952e+00 3.485750e+00 -4.283233e-01 -7.649398e-01 -3.152137e-01 -9.950110e-01 2.811899e-02 5.623817e-01 3.452951e-01 8.623812e-01 5.850314e-01 1.238271e-02 -1.225819e-01 3.385001e-01 6.072432e-01
<VARIANCE> 39
 3.481171e+01 8.607785e+01 1.157798e+02 1.644610e+02 1.201794e+02 1.869622e+02 1.631958e+02 1.594816e+02 1.989232e+02 1.516140e+02 1.539528e+02 1.282431e+02 7.565384e+01 7.967387e+00 1.049695e+01 1.842302e+01 1.801933e+01 1.709405e+01 1.619971e+01 1.801870e+01 1.616142e+01 2.145909e+01 1.763335e+01 1.575725e+01 1.559026e+01 1.080453e+01 1.027259e+00 1.348930e+00 2.151170e+00 2.671014e+00 2.215158e+00 2.031326e+00 2.322991e+00 2.577012e+00 3.516550e+00 2.392569e+00 2.180237e+00 2.052528e+00 1.002276e+00
<GCONST> 1.786024e+02
<TRANSP> 5
 0.000000e+00 1.000000e+00 0.000000e+00 0.000000e+00 0.000000e+00
 0.000000e+00 3.759594e-01 6.240405e-01 0.000000e+00 0.000000e+00
 0.000000e+00 0.000000e+00 6.320671e-01 3.679329e-01 0.000000e+00
 0.000000e+00 0.000000e+00 0.000000e+00 4.328985e-01 5.671015e-01
 0.000000e+00 0.000000e+00 0.000000e+00 0.000000e+00 0.000000e+00
<ENDHMM>
~h "n"
<BEGINHMM>
<NUMSTATES> 5
<STATE> 2
<MEAN> 39
 1.397149e+01 7.356656e+00 8.742383e+00 7.414857e+00 -6.285083e+00 -6.228417e+00 -4.729260e+00 -7.761732e+00 -1.008648e+01 -4.633627e+00 -6.579128e+00 -4.787073e+00 -1.544698e-01 4.705946e-01 4.303232e+00 4.072181e-01 3.764642e+00 3.064920e-01 -7.315843e-01 9.078926e-01 -5.088009e+00 -2.041570e+00 1.488509e+00 -4.230013e-01 -7.758459e-01 -4.107502e+00 -5.556287e-01 -7.724570e-01 -1.211602e-01 -9.793180e-01 7.078405e-02 5.250615e-01 1.611584e-01 7.571777e-01 4.915266e-01 -1.241626e-01 1.085116e-01 1.795263e-01 8.335063e-01
<VARIANCE> 39
 3.219022e+01 8.767666e+01 9.924854e+01 1.198830e+02 1.290464e+02 1.377613e+02 1.414069e+02 2.002195e+02 1.823899e+02 1.687657e+02 1.426958e+02 1.463516e+02 5.777966e+01 4.958970e+00 9.823508e+00 1.543006e+01 1.309705e+01 1.667411e+01 1.676275e+01 1.755151e+01 2.035736e+01 2.120483e+01 1.693118e+01 1.290506e+01 1.213245e+01 6.626947e+00 8.047259e-01 1.311842e+00 1.668819e+00 1.746440e+00 2.250495e+00 2.123488e+00 2.093824e+00 3.024710e+00 2.502324e+00 2.278345e+00 1.828416e+00 1.880545e+00 7.743496e-01
<GCONST> 1.741696e+02
<STATE> 3
<MEAN> 39
 1.386874e+01 1.286095e+01 9.615753e+00 9.740693e+00 -5.984970e+00 -5.594285e+00 -2.769471e+00 -1.370381e+01 -1.176239e+01 -2.437648e+00 -6.813446e+00 -5.413281e+00 -4.678579e+00 -5.984588e-01 1.246316e+00 2.913392e-01 7.036601e-01 9.030409e-01 3.929139e-01 1.201246e-01 -6.704109e-01 -2.294881e-01 -3.758458e-02 4.625457e-02 6.726519e-03 -1.335507e+00 -7.307549e-01 -1.070540e+00 -1.541385e-01 -8.325307e-01 3.802098e-01 4.553659e-01 -7.076268e-02 1.448299e+00 7.318498e-01 -3.201606e-01 2.753373e-01 3.135371e-01 8.124918e-01
<VARIANCE> 39
 3.242924e+01 7.180901e+01 7.653423e+01 1.043674e+02 1.129959e+02 1.210896e+02 1.466285e+02 1.557341e+02 1.501292e+02 1.634867e+02 1.311275e+02 1.403270e+02 5.008577e+01 3.127327e+00 6.032435e+00 5.395408e+00 6.627405e+00 8.660382e+00 7.160266e+00 7.588389e+00 1.039901e+01 8.828341e+00 8.071686e+00 7.199691e+00 7.166650e+00 4.368604e+00 1.054208e+00 1.909780e+00 1.913759e+00 2.288469e+00 2.250116e+00 2.184119e+00 2.396567e+00 3.085266e+00 2.760261e+00 2.495176e+00 1.866982e+00 1.926470e+00 1.224710e+00
<GCONST> 1.656939e+02
<STATE> 4
<MEAN> 39
 1.023556e+01 1.227674e+01 1.033398e+01 1.018249e+01 -2.124786e+00 -3.965409e+00 -4.060200e+00 -1.055091e+01 -1.076294e+01 -4.952598e+00 -6.653096e+00 -4.721779e+00 -6.137150e+00 -3.431659e+00 -2.231029e+00 -6.031283e-01 -1.448196e+00 1.992603e+00 1.971401e+00 5.620495e-01 3.280056e+00 2.243748e+00 -1.470550e-01 1.058298e+00 9.745449e-01 8.707336e-01 -9.008375e-01 -1.239835e+00 -7.068897e-01 -1.068932e+00 -2.165766e-01 3.889672e-01 3.996187e-01 1.174059e+00 9.093426e-01 3.341903e-01 4.016048e-01 3.833938e-01 1.210604e+00
<VARIANCE> 39
 5.977593e+01 1.246850e+02 9.139758e+01 1.279305e+02 1.511359e+02 1.332489e+02 1.442506e+02 1.707383e+02 1.587426e+02 1.547416e+02 1.182508e+02 1.194848e+02 1.026771e+02 1.312505e+01 1.555971e+01 1.578334e+01 1.855526e+01 1.934536e+01 1.585387e+01 1.904019e+01 2.036537e+01 1.938042e+01 1.838344e+01 1.415412e+01 1.389721e+01 1.412821e+01 1.913181e+00 2.541546e+00 2.337679e+00 2.491997e+00 2.856498e+00 2.568558e+00 2.808666e+00 3.510736e+00 3.024004e+00 2.882656e+00 2.182092e+00 2.181693e+00 2.022355e+00
<GCONST> 1.828250e+02
<TRANSP> 5
 0.000000e+00 1.000000e+00 0.000000e+00 0.000000e+00 0.000000e+00
 0.000000e+00 3.148614e-01 6.851386e-01 0.000000e+00 0.000000e+00
 0.000000e+00 0.000000e+00 6.084332e-01 3.915668e-01 0.000000e+00
 0.000000e+00 0.000000e+00 0.000000e+00 3.650195e-01 6.349806e-01
 0.000000e+00 0.000000e+00 0.000000e+00 0.000000e+00 0.000000e+00
<ENDHMM>
~h "p"
<BEGINHMM>
<NUMSTATES> 5
<STATE> 2
<MEAN> 39
 -9.734432e-01 9.496798e+00 2.730644e+00 9.698133e+00 8.812418e+00 4.646063e+00 3.372437e+00 -2.711168e+00 -3.373096e-02 8.229499e-01 1.283733e+00 -1.604259e+00 -2.054144e+01 -3.948718e+00 -1.067274e+00 -8.999842e-01 3.912905e-01 3.946114e-01 9.727478e-01 2.446391e+00 1.990707e+00 2.439749e+00 1.467345e+00 1.476489e+00 1.516866e+00 -4.107246e+00 -8.483401e-03 -1.348101e+00 -5.261825e-01 -8.838561e-01 -8.179866e-01 -4.109047e-01 -1.304585e-01 5.220172e-01 4.187537e-01 4.900309e-01 2.546283e-01 4.028062e-01 2.171560e+00
<VARIANCE> 39
 1.122083e+02 7.701726e+01 1.035724e+02 9.720746e+01 8.835575e+01 1.025753e+02 1.092026e+02 1.109744e+02 1.330139e+02 1.042267e+02 9.596520e+01 8.691103e+01 9.012782e+01 1.635379e+01 1.292742e+01 1.478361e+01 1.357112e+01 1.252700e+01 1.415089e+01 1.329101e+01 1.498654e+01 1.583467e+01 1.315581e+01 1.258675e+01 9.691215e+00 2.965952e+01 2.040787e+00 1.836882e+00 2.576699e+00 2.803908e+00 2.306539e+00 2.175172e+00 2.592705e+00 2.537178e+00 2.593942e+00 2.231977e+00 1.929222e+00 1.667335e+00 2.384531e+00
<GCONST> 1.767892e+02
<STATE> 3
<MEAN> 39
 -1.056959e+01 7.808326e-01 -4.342467e+00 4.028368e+00 4.653518e+00 3.665730e+00 6.667110e+00 2.742413e+00 7.527360e+00 7.577700e+00 7.843327e+00 4.695758e+00 -2.475434e+01 -2.318659e-01 -1.455890e+00 3.573952e-01 7.100075e-01 2.193907e-01 4.838309e-01 1.032830e+00 1.394491e+00 1.341598e+00 8.045849e-01 3.577794e-01 9.435320e-01 3.577498e+00 1.359936e+00 2.902984e-01 8.816395e-01 5.425305e-01 3.665989e-01 1.506278e-01 -1.348006e-01 -1.686109e-01 -4.999431e-01 -4.642151e-01 -6.670059e-01 -4.179552e-01 2.535707e+00
<VARIANCE> 39
 4.228259e+01 4.283246e+01 5.994570e+01 6.694418e+01 6.387839e+01 8.074027e+01 7.640512e+01 8.478765e+01 9.864568e+01 8.867891e+01 7.371908e+01 5.748534e+01 8.022195e+01 1.124852e+01 8.226006e+00 1.303368e+01 1.214920e+01 1.007997e+01 1.015132e+01 1.095457e+01 1.186303e+01 1.244661e+01 1.116187e+01 9.557363e+00 8.063182e+00 2.962000e+01 1.739195e+00 1.471274e+00 1.921001e+00 2.037996e+00 1.967295e+00 2.097122e+00 2.338980e+00 2.256948e+00 2.283388e+00 2.083439e+00 1.741820e+00 1.416052e+00 2.663148e+00
<GCONST> 1.671957e+02
<STATE> 4
<MEAN> 39
 -4.036644e+00 -2.315125e+00 4.999221e+00 1.000786e+01 8.461956e+00 8.760384e+00 1.308997e+01 5.621025e+00 6.634165e+00 6.289954e+00 3.532577e+00 3.937234e+00 1.791522e+00 2.870828e+00 -4.037951e-01 2.731133e-01 -1.167827e+00 -1.171968e+00 -7.173048e-01 -8.485154e-01 -8.921680e-01 -1.855267e+00 -1.394507e+00 -1.561426e+00 -1.129854e+00 3.319015e+00 7.213933e-01 1.420464e-01 -6.947592e-01 -9.975337e-01 -9.227844e-01 -8.978598e-01 -1.189822e+00 -5.686290e-01 -7.593037e-01 -5.722494e-01 -1.477632e-01 -4.201220e-01 -7.642698e-01
<VARIANCE> 39
 8.835500e+01 1.116256e+02 2.214102e+02 1.607934e+02 1.679952e+02 1.622931e+02 1.589961e+02 1.549156e+02 1.471187e+02 1.187618e+02 1.107069e+02 8.378217e+01 9.199945e+01 1.705697e+01 1.211273e+01 1.894480e+01 2.039622e+01 1.875780e+01 1.981900e+01 2.301189e+01 1.963497e+01 1.846824e+01 1.516383e+01 1.275795e+01 1.069486e+01 2.408260e+01 2.455719e+00 2.284369e+00 2.375949e+00 3.134095e+00 2.660917e+00 2.899839e+00 3.149499e+00 3.734712e+00 3.475311e+00 2.870674e+00 2.564853e+00 2.065557e+00 4.269863e+00
<GCONST> 1.858155e+02
<TRANSP> 5
 0.000000e+00 1.000000e+00 0.000000e+00 0.000000e+00 0.000000e+00
 0.000000e+00 4.340829e-01 5.659171e-01 0.000000e+00 0.000000e+00
 0.000000e+00 0.000000e+00 6.513188e-01 3.486812e-01 0.000000e+00
 0.000000e+00 0.000000e+00 0.000000e+00 7.739424e-01 2.260576e-01
 0.000000e+00 0.000000e+00 0.000000e+00 0.000000e+00 0.000000e+00
<ENDHMM>
~h "r"
<BEGINHMM>
<NUMSTATES> 5
<STATE> 2
<MEAN> 39
 2.459069e+01 -4.392525e+00 -1.614777e+01 5.505051e+00 5.960603e+00 -1.049678e+01 -1.632750e+01 1.223337e+00 -1.692752e+00 -3.562500e+00 8.749692e-01 6.401206e-01 7.858296e+00 2.985136e+00 -1.191985e+00 -2.073551e+00 -1.982808e-01 5.742969e-02 -2.686244e+00 -3.167512e+00 1.531137e+00 6.376014e-01 -9.112188e-01 -3.401523e-01 2.183039e-02 1.490810e+00 -1.212060e+00 -4.900108e-01 1.156686e+00 -4.583983e-02 -8.342209e-01 2.708396e-01 1.056893e+00 4.599710e-01 -6.092494e-02 1.733690e-01 1.522608e-01 -9.038486e-02 1.433574e-01
<VARIANCE> 39
 6.558422e+01 1.411787e+02 2.453600e+02 1.336799e+02 2.002996e+02 2.619313e+02 2.503262e+02 2.968282e+02 2.214364e+02 1.549048e+02 1.264968e+02 1.519737e+02 8.679201e+01 1.610773e+01 1.139684e+01 1.773074e+01 1.517643e+01 1.936432e+01 2.138229e+01 2.068395e+01 2.246307e+01 2.278557e+01 1.629032e+01 1.312226e+01 1.119077e+01 9.096715e+00 2.010283e+00 1.736497e+00 2.219185e+00 1.768302e+00 2.272395e+00 3.093510e+00 3.872239e+00 3.499449e+00 2.848663e+00 2.579514e+00 2.041845e+00 1.992045e+00 9.865850e-01
<GCONST> 1.847097e+02
<STATE> 3
<MEAN> 39
 2.534251e+01 -1.322480e+01 -1.424615e+01 9.258430e+00 2.168621e+00 -2.356703e+01 -1.934491e+01 1.642319e+01 3.107294e+00 -6.509215e+00 9.605448e-01 1.314410e+00 1.283655e+01 -3.485545e-01 -5.471126e-01 1.643153e+00 2.648840e-01 -1.566765e+00 -8.632958e-01 7.064770e-01 8.551524e-01 -6.024398e-01 -5.050385e-01 1.537738e-01 -2.905842e-02 2.037331e-01 -8.564897e-01 3.459391e-01 1.307209e+00 -3.201527e-01 -7.622920e-01 8.766330e-01 1.284902e+00 -7.355909e-01 -7.360818e-01 3.313884e-01 2.812486e-01 -1.116222e-01 -2.558982e-01
<VARIANCE> 39
 3.260772e+01 7.924609e+01 2.108017e+02 1.178175e+02 2.208523e+02 2.471381e+02 3.130316e+02 2.368873e+02 2.786098e+02 1.501746e+02 1.276295e+02 1.462570e+02 4.968374e+01 4.010722e+00 7.312614e+00 1.465136e+01 8.526591e+00 1.665167e+01 1.156942e+01 1.490400e+01 1.391483e+01 1.369410e+01 1.031021e+01 9.341003e+00 7.425833e+00 5.150126e+00 1.042076e+00 7.670826e-01 1.084517e+00 1.179025e+00 1.626016e+00 2.070755e+00 2.187542e+00 2.138174e+00 2.087175e+00 1.757348e+00 1.307484e+00 1.254062e+00 4.423840e-01
<GCONST> 1.695449e+02
<STATE> 4
<MEAN> 39
 2.102339e+01 -1.376426e+01 -4.794749e+00 7.754639e+00 -7.292355e+00 -2.033167e+01 -1.050887e+01 1.353507e+01 -5.092001e+00 -6.671564e+00 2.164540e+00 -1.164582e+00 1.299350e+01 -2.684846e+00 1.279253e+00 5.105993e+00 -8.712448e-01 -2.734474e+00 2.087599e+00 3.642164e+00 -2.353927e+00 -1.880805e+00 8.735597e-01 3.035423e-01 -5.823523e-01 -1.018595e+00 -8.786173e-01 9.084823e-01 7.796578e-02 -6.286522e-01 8.518213e-01 1.502259e+00 2.858974e-01 -1.198700e+00 3.655049e-01 7.412368e-01 -2.210692e-01 -1.228295e-01 -6.486661e-01
<VARIANCE> 39
 4.436899e+01 1.131831e+02 2.718303e+02 1.722722e+02 2.434100e+02 2.994444e+02 2.761832e+02 2.435549e+02 2.901996e+02 1.899440e+02 1.763586e+02 1.525377e+02 8.837543e+01 6.791125e+00 1.421871e+01 1.299661e+01 1.639976e+01 2.160385e+01 1.743970e+01 1.940260e+01 2.048071e+01 1.978773e+01 1.557669e+01 1.377424e+01 1.290063e+01 1.361991e+01 1.474331e+00 1.596691e+00 2.061785e+00 2.466570e+00 2.557095e+00 3.117638e+00 3.469727e+00 3.670262e+00 3.273178e+00 2.647509e+00 2.564073e+00 2.059304e+00 9.943176e-01
<GCONST> 1.851565e+02
<TRANSP> 5
 0.000000e+00 1.000000e+00 0.000000e+00 0.000000e+00 0.000000e+00
 0.000000e+00 4.893339e-01 5.106661e-01 0.000000e+00 0.000000e+00
 0.000000e+00 0.000000e+00 6.342155e-01 3.657845e-01 0.000000e+00
 0.000000e+00 0.000000e+00 0.000000e+00 4.120817e-01 5.879183e-01
 0.000000e+00 0.000000e+00 0.000000e+00 0.000000e+00 0.000000e+00
<ENDHMM>
~h "s"
<BEGINHMM>
<NUMSTATES> 5
<STATE> 2
<MEAN> 39
 -2.416074e+01 1.819675e+01 -9.510939e-01 8.802884e+00 1.092295e+01 7.685087e-01 1.002973e+01 1.951466e+00 3.047585e+00 3.230725e-01 -1.372276e-01 3.433932e+00 6.563577e+00 -8.782339e+00 2.418228e+00 -3.136277e+00 9.321558e-01 3.001899e+00 2.300885e+00 3.021932e+00 1.662585e+00 1.327564e+00 1.398450e+00 2.091870e+00 1.303910e+00 8.511959e-02 1.395164e+00 -1.082173e+00 -3.046425e-01 -7.249215e-01 -9.837829e-01 -3.752233e-01 -9.668115e-01 -1.594900e-01 -2.114144e-01 5.544997e-02 -1.079548e-01 -1.724347e-01 -5.593531e-02
<VARIANCE> 39
 2.187341e+02 1.098002e+02 1.732665e+02 2.035976e+02 1.594972e+02 1.876880e+02 1.477260e+02 1.394152e+02 1.243869e+02 1.194331e+02 1.191242e+02 8.194432e+01 6.714953e+01 1.804055e+01 1.396647e+01 1.663170e+01 2.246778e+01 1.725893e+01 1.985928e+01 1.732487e+01 1.600941e+01 1.637671e+01 1.585520e+01 1.411272e+01 1.001118e+01 6.573524e+00 3.765334e+00 2.173752e+00 3.170189e+00 3.075818e+00 2.727462e+00 3.341097e+00 2.885500e+00 2.810467e+00 2.347667e+00 2.522920e+00 2.296367e+00 1.857377e+00 1.047093e+00
<GCONST> 1.827395e+02
<STATE> 3
<MEAN> 39
 -3.727499e+01 1.962872e+01 -1.261896e+01 1.049029e+01 1.148249e+01 3.574751e+00 1.245866e+01 2.864031e+00 5.426237e+00 3.386997e+00 3.908190e+00 5.886122e+00 5.180194e+00 -1.970290e-01 -2.809360e-01 4.943636e-02 -4.523165e-01 -5.916467e-03 -3.491028e-02 -5.933743e-02 1.464306e-01 1.271424e-01 1.227433e-01 3.474094e-02 1.125470e-01 -2.497894e-02 1.418682e+00 -4.633321e-01 8.362612e-01 -2.331906e-01 -2.715305e-01 -2.976609e-01 -3.749771e-01 -9.274245e-02 -7.397655e-02 -1.500544e-01 -2.680253e-01 -1.763412e-01 -2.024735e-01
<VARIANCE> 39
 5.966056e+01 7.716200e+01 9.037701e+01 2.302124e+02 1.267184e+02 1.449281e+02 9.606166e+01 9.010310e+01 1.064129e+02 7.540186e+01 1.038059e+02 5.485609e+01 5.248400e+01 5.033746e+00 5.221789e+00 6.399685e+00 5.617244e+00 5.870434e+00 6.557623e+00 6.268207e+00 6.258194e+00 5.970523e+00 5.842001e+00 5.269168e+00 4.724256e+00 3.587965e+00 1.571022e+00 1.107060e+00 1.114618e+00 1.266252e+00 1.320389e+00 1.549199e+00 1.506969e+00 1.394327e+00 1.384622e+00 1.339097e+00 1.285181e+00 1.046043e+00 7.223276e-01
<GCONST> 1.556962e+02
<STATE> 4
<MEAN> 39
 -2.694113e+01 1.370147e+01 -1.735418e+00 4.609248e+00 1.118734e+01 1.132394e+00 8.666406e+00 4.740517e+00 5.724094e+00 3.204472e+00 1.360363e+00 4.879879e+00 3.788933e+00 7.540040e+00 -2.738082e+00 2.520400e+00 -1.151197e+00 -2.721099e+00 -1.191513e+00 -2.799088e+00 -9.342253e-01 -2.190063e-01 -4.063804e-01 -1.021289e+00 -1.067606e+00 -1.453644e+00 1.121679e+00 -6.763396e-01 -4.192284e-01 -2.216015e-01 -8.603607e-01 -1.535139e-01 -5.688672e-01 -3.504302e-01 -2.470731e-01 -1.048212e-01 -1.067697e-01 -2.758262e-01 1.307844e-01
<VARIANCE> 39
 2.160369e+02 1.071647e+02 1.333636e+02 1.879963e+02 1.625376e+02 1.777368e+02 1.559606e+02 1.280723e+02 1.324927e+02 1.062487e+02 1.284160e+02 7.788613e+01 9.795820e+01 2.028376e+01 1.217718e+01 1.409680e+01 1.936708e+01 1.670578e+01 2.211218e+01 1.783151e+01 1.469091e+01 1.441195e+01 1.277058e+01 1.441562e+01 9.074007e+00 1.909148e+01 3.623366e+00 2.277180e+00 2.302919e+00 2.740628e+00 2.618645e+00 3.275123e+00 3.346800e+00 2.603367e+00 2.527840e+00 2.217025e+00 2.372376e+00 1.679897e+00 2.721894e+00
<GCONST> 1.833885e+02
<TRANSP> 5
 0.000000e+00 1.000000e+00 0.000000e+00 0.000000e+00 0.000000e+00
 0.000000e+00 6.274310e-01 3.725689e-01 0.000000e+00 0.000000e+00
 0.000000e+00 0.000000e+00 8.183392e-01 1.816608e-01 0.000000e+00
 0.000000e+00 0.000000e+00 0.000000e+00 6.587820e-01 3.412180e-01
 0.000000e+00 0.000000e+00 0.000000e+00 0.000000e+00 0.000000e+00
<ENDHMM>
~h "t"
<BEGINHMM>
<NUMSTATES> 5
<STATE> 2
<MEAN> 39
 -6.841686e+00 5.057401e+00 1.434298e+00 6.612808e+00 3.297789e+00 6.382896e-01 2.072149e+00 -8.421237e-01 2.928992e+00 2.519238e+00 2.536556e+00 1.199939e+00 -1.838370e+01 -2.714405e+00 -1.635665e+00 -1.168914e+00 -8.365924e-01 9.888422e-01 1.603354e+00 1.745620e+00 8.390319e-01 1.040291e+00 9.301116e-01 1.287136e+00 1.013578e+00 -1.664649e-01 -1.419161e-01 -2.216994e-01 2.951077e-01 -8.054893e-01 -5.868022e-01 -3.041508e-01 2.836627e-02 2.747636e-01 -2.311047e-01 -1.559294e-02 -1.282804e-01 1.579288e-01 2.838737e+00
<VARIANCE> 39
 1.476421e+02 1.027093e+02 1.437444e+02 1.151232e+02 1.209675e+02 1.272006e+02 1.222894e+02 1.241550e+02 1.383558e+02 1.218083e+02 1.136091e+02 8.399567e+01 1.539101e+02 1.788807e+01 1.859499e+01 1.775113e+01 1.731057e+01 1.826606e+01 1.551226e+01 1.540024e+01 1.678931e+01 1.678963e+01 1.482643e+01 1.263231e+01 1.026406e+01 4.505355e+01 2.098883e+00 3.503020e+00 2.854384e+00 3.080782e+00 3.171589e+00 2.597234e+00 2.594886e+00 2.871685e+00 2.745663e+00 2.695666e+00 2.358141e+00 1.852932e+00 3.758082e+00
<GCONST> 1.842323e+02
<STATE> 3
<MEAN> 39
 -1.974450e+01 1.587861e+00 3.104633e+00 3.289482e-02 4.608176e+00 4.630860e+00 9.074897e+00 3.540565e+00 4.654074e+00 5.725307e+00 5.859232e+00 6.005480e+00 3.703897e+00 -8.894856e-01 3.326461e-01 1.816207e+00 1.196196e-01 -6.739753e-01 -4.338959e-01 1.158283e+00 8.305873e-01 -3.082165e-01 -4.647056e-01 -3.766812e-01 5.497444e-01 3.825603e+00 1.938688e+00 2.125233e-01 2.703419e-01 5.372301e-01 -6.378763e-01 -8.084950e-01 -8.935190e-01 -3.819714e-01 -5.264347e-01 -6.017907e-01 -7.138566e-01 -5.972068e-01 -8.701828e-01
<VARIANCE> 39
 2.010835e+02 1.794761e+02 1.537054e+02 1.398543e+02 1.611373e+02 1.508379e+02 1.603384e+02 1.339487e+02 1.334760e+02 1.170569e+02 1.121093e+02 7.803613e+01 1.999482e+02 2.214046e+01 1.450851e+01 1.507596e+01 1.508217e+01 1.439262e+01 1.510810e+01 1.454568e+01 1.453338e+01 1.376255e+01 1.265345e+01 1.094335e+01 8.986601e+00 3.204717e+01 3.114567e+00 3.949632e+00 3.079487e+00 3.492649e+00 3.794352e+00 3.491784e+00 3.374678e+00 3.182242e+00 2.995682e+00 2.756019e+00 2.547176e+00 1.950780e+00 6.259918e+00
<GCONST> 1.867924e+02
<STATE> 4
<MEAN> 39
 -9.408319e+00 1.232462e+00 7.828952e+00 6.456011e+00 1.001199e+00 -4.402787e-01 6.424326e+00 2.697125e+00 1.922652e+00 1.468067e-01 -4.170637e-01 3.279884e+00 3.096120e+00 5.321074e+00 -5.147488e-01 7.012521e-02 -2.581999e-01 -1.974914e+00 -2.019865e+00 -2.818603e+00 -1.115411e+00 -1.532353e+00 -1.493756e+00 -1.703241e+00 -1.449238e+00 6.955562e-01 8.775265e-01 -2.333748e-01 -6.903953e-01 -7.679688e-01 -3.474985e-01 -1.266261e-01 -8.709453e-01 -2.534377e-01 -1.996568e-01 1.260848e-01 1.575459e-01 -3.167004e-01 9.659352e-02
<VARIANCE> 39
 2.072417e+02 1.527592e+02 1.884563e+02 1.542345e+02 1.866005e+02 1.783157e+02 1.945190e+02 1.762725e+02 1.582344e+02 1.242794e+02 1.206131e+02 9.264476e+01 1.606947e+02 3.084583e+01 1.451943e+01 1.923982e+01 1.977139e+01 2.425467e+01 2.368523e+01 2.302907e+01 1.897057e+01 1.972710e+01 1.670548e+01 1.690762e+01 1.212050e+01 1.564609e+01 3.065283e+00 2.398066e+00 2.755306e+00 2.644976e+00 3.144772e+00 3.287452e+00 3.457263e+00 3.381716e+00 2.999410e+00 2.670049e+00 2.620196e+00 2.096577e+00 3.286559e+00
<GCONST> 1.895589e+02
<TRANSP> 5
 0.000000e+00 1.000000e+00 0.000000e+00 0.000000e+00 0.000000e+00
 0.000000e+00 5.443972e-01 4.556029e-01 0.000000e+00 0.000000e+00
 0.000000e+00 0.000000e+00 5.276783e-01 4.723217e-01 0.000000e+00
 0.000000e+00 0.000000e+00 0.000000e+00 4.546918e-01 5.453082e-01
 0.000000e+00 0.000000e+00 0.000000e+00 0.000000e+00 0.000000e+00
<ENDHMM>
~h "v"
<BEGINHMM>
<NUMSTATES> 5
<STATE> 2
<MEAN> 39
 1.161432e+01 7.709037e+00 1.155209e+00 8.340876e+00 4.603023e+00 -1.046385e+00 -8.016115e+00 -9.325804e+00 -1.932478e+00 9.811807e-01 -2.059513e+00 -4.899518e+00 -1.970338e+00 -4.504491e+00 3.903706e+00 1.679872e+00 4.136321e+00 3.244874e+00 2.383030e+00 2.292942e+00 -6.484354e-01 -1.073712e+00 -1.303562e+00 -3.636560e-01 3.198388e-01 -4.401196e+00 -7.036483e-01 -1.157126e+00 -3.767935e-02 -8.904187e-01 -7.824880e-01 -6.813242e-02 4.953969e-01 1.123794e+00 3.452794e-01 -1.355620e-01 -2.510307e-01 1.644065e-01 1.112846e+00
<VARIANCE> 39
 5.812202e+01 6.066016e+01 9.298669e+01 8.245496e+01 7.220544e+01 1.110983e+02 1.053306e+02 1.012825e+02 1.007957e+02 1.088445e+02 1.030761e+02 8.908343e+01 5.670621e+01 9.687304e+00 9.181890e+00 1.135951e+01 1.285462e+01 1.099607e+01 1.463191e+01 1.420771e+01 1.573168e+01 1.385146e+01 1.201210e+01 1.258541e+01 1.016159e+01 7.210522e+00 1.435757e+00 1.319224e+00 1.553689e+00 1.642178e+00 1.643610e+00 1.795336e+00 2.182520e+00 2.009734e+00 2.124511e+00 2.039236e+00 1.908277e+00 1.687144e+00 1.091342e+00
<GCONST> 1.682823e+02
<STATE> 3
<MEAN> 39
 -4.165377e-01 1.228757e+01 6.310556e+00 1.544940e+01 9.198822e+00 4.665940e+00 -1.089317e+00 -6.388978e+00 -4.235506e+00 -3.880753e+00 -5.046528e+00 -4.609939e+00 -7.970251e+00 -3.763301e+00 -2.851327e-01 6.158549e-02 7.278064e-01 3.443062e-01 8.478807e-01 1.821455e+00 1.476919e+00 5.061600e-01 -2.121616e-01 8.319321e-02 7.054396e-01 -4.479856e-01 1.431372e+00 -1.720370e+00 -9.892712e-01 -2.006447e+00 -1.535730e+00 -1.061586e+00 -6.941929e-01 4.598287e-01 5.915804e-01 7.096224e-01 4.327881e-01 2.420605e-01 1.936973e+00
<VARIANCE> 39
 9.501981e+01 5.588338e+01 8.033920e+01 7.878232e+01 7.156582e+01 9.366737e+01 1.056899e+02 9.847863e+01 9.270703e+01 9.996935e+01 7.921620e+01 8.533591e+01 6.799004e+01 1.506002e+01 7.535151e+00 8.276464e+00 1.035494e+01 8.974544e+00 1.118549e+01 1.058543e+01 9.758157e+00 9.689926e+00 9.368927e+00 9.550861e+00 7.425096e+00 8.468237e+00 2.251259e+00 1.679797e+00 2.246794e+00 2.114710e+00 2.147320e+00 2.345228e+00 2.518234e+00 2.688321e+00 2.503401e+00 2.199896e+00 1.973780e+00 1.950788e+00 1.615282e+00
<GCONST> 1.685275e+02
<STATE> 4
<MEAN> 39
 -4.962626e+00 5.537465e+00 9.704762e-01 1.020334e+01 5.289996e+00 3.033130e+00 8.920165e-01 -2.132093e+00 2.710832e-01 5.947480e-02 -1.514528e+00 -7.104429e-01 -2.684704e+00 1.826069e+00 -2.233950e+00 -1.501632e+00 -3.067278e+00 -2.193029e+00 -1.600423e+00 -7.217041e-01 8.822905e-01 8.868254e-01 8.874931e-01 8.352928e-01 6.077399e-01 2.713697e+00 1.788218e+00 -4.402511e-01 -1.275376e-01 -1.044345e+00 -6.490221e-01 -5.442920e-01 -7.881775e-01 -1.577426e-01 -1.238387e-01 3.736958e-02 -1.789861e-02 -2.568963e-01 7.391003e-01
<VARIANCE> 39
 2.019226e+02 8.264666e+01 1.036220e+02 9.738380e+01 9.015724e+01 1.137187e+02 1.207680e+02 1.137863e+02 1.030087e+02 9.415282e+01 8.242052e+01 8.010507e+01 9.311163e+01 2.899648e+01 1.150742e+01 1.428709e+01 1.582029e+01 1.437299e+01 1.538103e+01 1.607085e+01 1.445716e+01 1.395334e+01 1.227597e+01 1.175990e+01 1.054157e+01 1.493152e+01 3.165388e+00 2.148742e+00 2.140253e+00 2.487692e+00 2.293137e+00 2.762907e+00 2.655962e+00 2.743407e+00 2.583956e+00 2.208928e+00 2.231137e+00 1.865164e+00 1.939284e+00
<GCONST> 1.778873e+02
<TRANSP> 5
 0.000000e+00 1.000000e+00 0.000000e+00 0.000000e+00 0.000000e+00
 0.000000e+00 4.158456e-01 5.841544e-01 0.000000e+00 0.000000e+00
 0.000000e+00 0.000000e+00 4.504661e-01 5.495340e-01 0.000000e+00
 0.000000e+00 0.000000e+00 0.000000e+00 4.600597e-01 5.399403e-01
 0.000000e+00 0.000000e+00 0.000000e+00 0.000000e+00 0.000000e+00
<ENDHMM>
~h "w"
<BEGINHMM>
<NUMSTATES> 5
<STATE> 2
<MEAN> 39
 1.547709e+01 1.372248e+01 -2.775419e+00 -2.708717e+00 -2.468558e-01 5.370794e+00 -2.765362e-01 -7.955600e+00 -8.498638e+00 -2.840370e+00 -1.330415e+00 -2.741732e+00 -6.364085e+00 3.846170e+00 2.569245e+00 -6.505802e-01 -3.915300e+00 -2.926714e+00 3.141314e-01 -8.560640e-02 -8.092144e-01 -1.613153e+00 -1.228514e+00 -4.997942e-01 -5.333371e-01 1.276433e+00 -2.049894e-01 -1.020585e+00 -3.330235e-01 -8.070022e-01 -3.533168e-01 -4.267221e-03 -3.788772e-01 5.028172e-01 4.182379e-01 5.353875e-01 2.206354e-01 1.634970e-01 1.062732e+00
<VARIANCE> 39
 9.074878e+01 1.068999e+02 9.998257e+01 1.514561e+02 1.521523e+02 1.276031e+02 1.459687e+02 1.197293e+02 1.242223e+02 1.117399e+02 1.061805e+02 9.043126e+01 8.931490e+01 1.661828e+01 1.061536e+01 1.341119e+01 2.205628e+01 1.778838e+01 1.688065e+01 2.051751e+01 1.967788e+01 1.933853e+01 1.534177e+01 1.581692e+01 1.166471e+01 1.455339e+01 1.372310e+00 1.964854e+00 2.326613e+00 3.117961e+00 2.816280e+00 3.158866e+00 3.114949e+00 2.861799e+00 3.019564e+00 3.012531e+00 2.633991e+00 2.007044e+00 1.182351e+00
<GCONST> 1.808686e+02
<STATE> 3
<MEAN> 39
 2.520373e+01 1.490866e+01 -8.347044e+00 -2.147703e+01 -1.279680e+01 9.288747e+00 1.259597e+00 -4.156926e+00 -1.006543e+01 -5.823464e+00 -9.224619e-01 -1.302112e+00 2.625658e+00 1.799871e+00 -2.177109e+00 -2.080438e+00 -3.859012e+00 -4.642855e-01 2.148194e+00 -1.435799e+00 -6.453269e-01 -8.799947e-01 6.559374e-01 1.290057e+00 4.918579e-01 3.527706e+00 -1.057288e+00 -1.488624e+00 -4.920548e-03 1.197285e+00 1.386695e+00 -5.757532e-02 -7.680256e-01 -1.479813e-01 6.627697e-01 9.396283e-01 2.863986e-01 -1.425557e-01 3.359680e-01
<VARIANCE> 39
 2.965068e+01 8.539529e+01 9.668053e+01 1.651606e+02 1.724284e+02 1.614669e+02 1.544234e+02 1.703569e+02 1.669086e+02 1.415725e+02 1.351859e+02 1.096133e+02 6.175387e+01 7.047093e+00 9.810290e+00 1.050784e+01 1.762312e+01 2.070959e+01 2.034389e+01 1.773147e+01 1.703269e+01 1.620375e+01 1.842775e+01 1.760300e+01 1.182529e+01 8.085484e+00 1.277390e+00 1.271302e+00 1.555669e+00 2.684591e+00 2.492166e+00 3.144335e+00 2.895537e+00 3.395166e+00 3.562529e+00 2.765076e+00 2.599537e+00 2.214474e+00 7.572695e-01
<GCONST> 1.777584e+02
<STATE> 4
<MEAN> 39
 2.365878e+01 -1.812185e+00 -1.462306e+01 -2.127384e+01 -1.530083e-01 1.439789e+01 -1.224633e+01 -1.091527e+01 -8.127216e+00 5.580493e+00 4.403700e+00 -3.929752e+00 1.455754e+01 -1.061883e+00 -4.600146e+00 4.973634e-01 2.146662e+00 1.454154e+00 -2.866309e+00 -3.891204e+00 9.842039e-01 3.568741e+00 2.479434e+00 -1.392197e+00 -2.150463e+00 3.405598e+00 -9.512752e-01 4.622312e-01 1.260680e+00 1.510900e+00 -5.849242e-01 -1.494987e+00 1.049175e+00 1.401506e+00 7.771847e-01 -1.057110e+00 -1.097425e+00 7.228807e-02 -9.156576e-01
<VARIANCE> 39
 3.494511e+01 1.031872e+02 1.405199e+02 2.245988e+02 1.983434e+02 3.019153e+02 2.672778e+02 1.937148e+02 2.282076e+02 2.689673e+02 2.637588e+02 1.693124e+02 6.512521e+01 3.690220e+00 6.603032e+00 1.180065e+01 1.763066e+01 1.970609e+01 2.394896e+01 1.751472e+01 2.283569e+01 1.703932e+01 2.012028e+01 2.091368e+01 1.261456e+01 4.170807e+00 1.198092e+00 1.601429e+00 1.612404e+00 2.782015e+00 3.767346e+00 3.873846e+00 4.320500e+00 3.105288e+00 4.248243e+00 4.481431e+00 3.876754e+00 3.338799e+00 7.185898e-01
<GCONST> 1.841160e+02
<TRANSP> 5
 0.000000e+00 1.000000e+00 0.000000e+00 0.000000e+00 0.000000e+00
 0.000000e+00 5.678988e-01 4.321012e-01 0.000000e+00 0.000000e+00
 0.000000e+00 0.000000e+00 6.153868e-01 3.846132e-01 0.000000e+00
 0.000000e+00 0.000000e+00 0.000000e+00 5.661404e-01 4.338596e-01
 0.000000e+00 0.000000e+00 0.000000e+00 0.000000e+00 0.000000e+00
<ENDHMM>
~h "y"
<BEGINHMM>
<NUMSTATES> 5
<STATE> 2
<MEAN> 39
 2.271369e+00 1.036994e+01 2.970416e+01 -4.964602e+00 -1.346447e+01 -2.607442e+00 -6.967928e+00 -9.943411e+00 -1.432216e+01 -2.642446e+00 -3.921304e+00 -3.524580e+00 5.690229e+00 1.180104e+00 8.186460e-02 4.296261e+00 -2.024390e+00 -4.291277e+00 3.492068e-01 -6.090987e-01 -1.346616e+00 -3.237007e+00 5.719318e-01 6.759563e-01 -1.025978e+00 1.440040e+00 -3.726872e-02 -6.441614e-01 -1.317864e+00 6.542135e-02 2.535878e-01 2.809389e-02 1.234369e-01 5.129573e-01 6.290583e-01 3.755315e-01 2.188605e-01 -3.593303e-02 9.615946e-02
<VARIANCE> 39
 7.344085e+01 1.343224e+02 1.578098e+02 2.070758e+02 1.939520e+02 1.689640e+02 1.540629e+02 2.185800e+02 1.551487e+02 1.675051e+02 1.640747e+02 1.197203e+02 7.943106e+01 1.853509e+01 1.148561e+01 1.609929e+01 1.726175e+01 2.198629e+01 2.488806e+01 2.242906e+01 1.929916e+01 2.163784e+01 2.114833e+01 1.643599e+01 1.131655e+01 8.897276e+00 1.469383e+00 1.462441e+00 1.980326e+00 2.623851e+00 3.259675e+00 3.268994e+00 3.015517e+00 3.474616e+00 2.577467e+00 2.624815e+00 2.307670e+00 1.933231e+00 7.639186e-01
<GCONST> 1.836829e+02
<STATE> 3
<MEAN> 39
 3.913923e+00 7.825202e+00 3.589377e+01 -1.055457e+01 -2.356331e+01 2.657572e-01 -6.933741e+00 -1.289916e+01 -1.877620e+01 3.045190e+00 -2.616376e+00 -6.280122e+00 9.493743e+00 8.134041e-01 -1.751983e+00 -6.809540e-01 5.594644e-01 -1.986976e+00 -1.439939e+00 9.032351e-01 1.075939e+00 -7.418566e-01 2.672869e-01 1.006602e+00 3.172896e-02 1.224383e+00 1.352090e-01 -3.139037e-01 -1.137908e+00 6.904259e-01 7.363834e-01 -7.143098e-01 6.953343e-02 8.082854e-01 4.375660e-01 -4.196518e-01 9.868989e-02 3.148860e-01 -9.659330e-02
<VARIANCE> 39
 3.207687e+01 8.929340e+01 1.155741e+02 2.285294e+02 1.329005e+02 1.687425e+02 1.473623e+02 1.588135e+02 1.528177e+02 2.162243e+02 2.144629e+02 1.146670e+02 4.660701e+01 3.601894e+00 5.196305e+00 6.235217e+00 6.619827e+00 8.199627e+00 1.055618e+01 1.028518e+01 9.809844e+00 7.744256e+00 8.014439e+00 6.891753e+00 5.470498e+00 2.577298e+00 5.990306e-01 6.420977e-01 1.267979e+00 1.322277e+00 2.056599e+00 1.680604e+00 1.706917e+00 1.645130e+00 1.856449e+00 1.740011e+00 1.385117e+00 1.106412e+00 4.320553e-01
<GCONST> 1.612785e+02
<STATE> 4
<MEAN> 39
 9.596581e+00 -4.102219e+00 2.505147e+01 5.343465e-01 -2.756618e+01 -1.387809e+01 -1.961080e+00 2.067565e+00 -1.998055e+01 -2.821045e+00 5.845155e+00 -2.735785e+00 1.474784e+01 1.631665e+00 -1.969150e+00 -4.178967e+00 1.754025e+00 1.939616e+00 -3.160574e+00 -1.394864e+00 3.982634e+00 1.907632e+00 -1.814008e+00 -2.290417e-02 1.192321e+00 6.546359e-01 -6.327982e-02 5.548205e-01 -5.566927e-01 -1.486979e-01 1.447814e+00 7.215971e-01 -8.743458e-01 -5.125413e-01 1.069887e+00 4.971020e-02 -8.033919e-01 -4.623894e-02 -5.887389e-01
<VARIANCE> 39
 3.541957e+01 7.524251e+01 1.428828e+02 2.052206e+02 1.019506e+02 1.945748e+02 1.588067e+02 1.898159e+02 1.800274e+02 2.470594e+02 1.716404e+02 1.135731e+02 4.351237e+01 2.336125e+00 3.931190e+00 7.593190e+00 6.486677e+00 8.592337e+00 9.735530e+00 1.243336e+01 1.080406e+01 1.274979e+01 8.969280e+00 9.024510e+00 6.273842e+00 2.035856e+00 5.615814e-01 5.946286e-01 1.402523e+00 1.340947e+00 1.871228e+00 1.861256e+00 1.876499e+00 2.101706e+00 1.960783e+00 2.066200e+00 1.359363e+00 1.334786e+00 4.520369e-01
<GCONST> 1.626977e+02
<TRANSP> 5
 0.000000e+00 1.000000e+00 0.000000e+00 0.000000e+00 0.000000e+00
 0.000000e+00 5.980998e-01 4.019002e-01 0.000000e+00 0.000000e+00
 0.000000e+00 0.000000e+00 7.182576e-01 2.817425e-01 0.000000e+00
 0.000000e+00 0.000000e+00 0.000000e+00 5.992846e-01 4.007155e-01
 0.000000e+00 0.000000e+00 0.000000e+00 0.000000e+00 0.000000e+00
<ENDHMM>
~h "z"
<BEGINHMM>
<NUMSTATES> 5
<STATE> 2
<MEAN> 39
 -1.369009e+01 2.517348e+01 4.824040e+00 8.104401e+00 7.663294e+00 -8.254164e+00 -1.282899e+00 -5.789766e+00 -5.604244e-01 -2.570490e+00 -4.269708e+00 1.383395e+00 5.503056e+00 -9.550325e+00 3.624041e+00 -2.451343e+00 1.599462e+00 4.918315e+00 3.256849e+00 4.202425e+00 1.810090e+00 9.440523e-01 6.350371e-01 1.265753e+00 3.726811e-01 -7.661154e-01 4.701192e-01 -1.903023e+00 -5.493713e-01 -6.515561e-01 -7.542740e-01 3.916960e-01 7.912240e-02 7.303109e-01 2.038702e-01 4.034561e-01 3.396294e-01 1.031193e-01 1.763869e-01
<VARIANCE> 39
 1.888564e+02 1.217122e+02 1.688599e+02 2.028011e+02 2.151033e+02 2.116831e+02 1.608113e+02 1.398124e+02 1.182679e+02 1.390270e+02 9.974129e+01 8.955694e+01 5.961638e+01 1.122905e+01 1.898197e+01 1.589547e+01 2.604971e+01 1.608952e+01 2.111527e+01 1.666487e+01 1.691356e+01 1.521991e+01 1.418411e+01 1.264210e+01 1.255698e+01 4.824653e+00 4.066737e+00 2.411404e+00 2.626851e+00 3.130648e+00 3.323114e+00 3.921095e+00 3.121199e+00 2.715347e+00 2.208113e+00 2.427838e+00 1.966096e+00 2.074078e+00 5.728673e-01
<GCONST> 1.822964e+02
<STATE> 3
<MEAN> 39
 -3.568674e+01 2.120905e+01 -8.943092e+00 8.431390e+00 1.382362e+01 1.304891e+00 1.175182e+01 2.456999e+00 5.021857e+00 2.711574e+00 2.346079e+00 4.930682e+00 2.571174e+00 -7.692198e-01 -1.582293e+00 -6.885140e-01 -7.524037e-01 -5.100133e-02 2.136317e-01 4.869494e-01 8.888279e-01 7.086849e-01 5.460944e-01 4.612114e-01 4.696937e-01 -6.588323e-02 2.400089e+00 -6.374632e-01 1.023468e+00 -2.741234e-01 -8.267707e-01 -6.833136e-01 -1.074396e+00 -4.520753e-01 -2.237378e-01 -2.399854e-01 -3.962386e-01 -2.347391e-01 -1.407782e-01
<VARIANCE> 39
 6.393547e+01 9.202738e+01 1.355471e+02 2.408996e+02 1.515910e+02 1.450719e+02 1.155432e+02 1.083652e+02 1.129541e+02 8.558152e+01 1.074123e+02 6.203015e+01 4.776374e+01 1.577174e+01 7.129945e+00 1.208536e+01 7.999727e+00 8.426560e+00 1.122190e+01 9.966837e+00 9.185208e+00 8.494260e+00 8.378717e+00 7.453150e+00 6.289426e+00 3.457480e+00 2.461277e+00 1.639707e+00 1.647038e+00 2.207232e+00 2.256803e+00 2.562212e+00 2.301998e+00 1.981822e+00 1.835818e+00 1.764585e+00 1.648454e+00 1.382023e+00 9.020827e-01
<GCONST> 1.675989e+02
<STATE> 4
<MEAN> 39
 -2.146729e+01 1.235024e+01 6.427141e-01 4.016492e+00 1.043032e+01 -1.726959e+00 3.363460e+00 2.994236e+00 5.516702e+00 2.447601e+00 -6.425653e-01 3.294625e+00 1.649088e+00 6.762542e+00 -3.265252e+00 9.626365e-01 -5.029818e-01 -2.588401e+00 -5.114434e-01 -2.212748e+00 -8.063925e-01 7.827669e-02 3.959203e-02 -3.828029e-01 -6.452950e-01 -1.968652e+00 6.325144e-01 -7.014690e-02 -4.433981e-01 -2.872928e-02 -4.032611e-01 8.991481e-02 -2.960643e-02 -3.081382e-01 -3.449869e-01 -7.251856e-02 5.038425e-02 -1.460691e-01 -2.438438e-01
<VARIANCE> 39
 2.228106e+02 1.532878e+02 1.486507e+02 1.994075e+02 2.101225e+02 2.231881e+02 1.902289e+02 1.751291e+02 1.598432e+02 1.318143e+02 1.316911e+02 9.293073e+01 1.180576e+02 1.903233e+01 1.367483e+01 1.487074e+01 1.971986e+01 1.837588e+01 2.265839e+01 1.978528e+01 1.689686e+01 1.599126e+01 1.396363e+01 1.378052e+01 1.007754e+01 1.760438e+01 4.320029e+00 2.581570e+00 2.264613e+00 2.913088e+00 3.338340e+00 3.949848e+00 3.560582e+00 3.325180e+00 2.859018e+00 2.612326e+00 2.413931e+00 1.886156e+00 2.467094e+00
<GCONST> 1.877963e+02
<TRANSP> 5
 0.000000e+00 1.000000e+00 0.000000e+00 0.000000e+00 0.000000e+00
 0.000000e+00 6.566501e-01 3.433499e-01 0.000000e+00 0.000000e+00
 0.000000e+00 0.000000e+00 7.642019e-01 2.357981e-01 0.000000e+00
 0.000000e+00 0.000000e+00 0.000000e+00 6.277760e-01 3.722241e-01
 0.000000e+00 0.000000e+00 0.000000e+00 0.000000e+00 0.000000e+00
<ENDHMM>
~h "aa"
<BEGINHMM>
<NUMSTATES> 5
<STATE> 2
<MEAN> 39
 1.747618e+01 -1.364389e+01 -1.732040e+01 -1.202469e+01 8.859597e+00 1.310237e+01 -3.180285e+00 -4.220305e+00 1.454567e+00 -3.264062e+00 -7.259127e+00 -9.856050e+00 1.896556e+01 2.645230e+00 -2.862857e+00 -2.950115e+00 -2.953987e+00 4.693901e-01 2.555777e+00 -1.131052e+00 -1.048389e+00 2.171515e-01 -5.633773e-01 2.161705e-02 -1.482659e+00 2.721758e+00 -1.318455e+00 3.886746e-01 6.621934e-01 9.249003e-01 5.355964e-01 -2.072166e-01 2.632172e-01 3.442578e-01 1.760394e-01 2.687999e-01 5.203431e-01 6.893705e-01 -8.964408e-01
<VARIANCE> 39
 5.010032e+01 1.013686e+02 1.229822e+02 1.788832e+02 2.057802e+02 2.346316e+02 2.422738e+02 2.220900e+02 1.895288e+02 1.910533e+02 1.874313e+02 1.316098e+02 7.069039e+01 1.144348e+01 9.098410e+00 1.186018e+01 1.597935e+01 1.620493e+01 1.608433e+01 1.801945e+01 1.867857e+01 1.541754e+01 1.292636e+01 1.332248e+01 1.205975e+01 6.637526e+00 1.424637e+00 1.708572e+00 1.582551e+00 2.253920e+00 2.318246e+00 2.704007e+00 2.813274e+00 3.593553e+00 2.801131e+00 2.429911e+00 2.577439e+00 1.961816e+00 1.009120e+00
<GCONST> 1.801522e+02
<STATE> 3
<MEAN> 39
 1.867972e+01 -1.694362e+01 -2.134346e+01 -1.686641e+01 1.449618e+01 2.076544e+01 -5.671930e+00 -6.481700e+00 2.794248e+00 -4.650697e+00 -3.996183e+00 -9.582667e+00 2.069998e+01 1.235877e-01 2.730812e-01 -1.567855e-01 -4.273273e-02 2.292962e-01 -1.283473e-01 -3.356281e-01 3.892727e-01 1.528417e-01 -2.988901e-01 3.207780e-01 2.473320e-01 -2.862407e-01 -3.898617e-02 5.241393e-01 3.797193e-01 3.592239e-01 -4.127716e-01 -6.156256e-01 1.422427e-01 2.461738e-01 -1.374298e-01 4.392425e-02 -5.479791e-02 1.561913e-01 -3.976252e-01
<VARIANCE> 39
 3.905104e+01 9.703986e+01 9.482964e+01 2.173081e+02 1.832545e+02 2.079262e+02 2.965456e+02 2.103546e+02 1.720135e+02 1.784777e+02 1.498938e+02 1.285620e+02 4.953209e+01 9.557720e-01 3.168322e+00 2.817840e+00 5.312590e+00 5.052826e+00 8.040431e+00 6.090468e+00 7.153299e+00 5.420171e+00 4.919851e+00 5.684922e+00 4.742346e+00 9.894572e-01 2.371271e-01 5.303892e-01 6.063580e-01 8.132513e-01 8.653619e-01 9.465547e-01 1.081982e+00 1.121927e+00 1.007548e+00 9.218188e-01 8.824867e-01 8.180258e-01 2.709398e-01
<GCONST> 1.489089e+02
<STATE> 4
<MEAN> 39
 1.930715e+01 -1.198454e+01 -1.770469e+01 -1.336730e+01 9.740022e+00 1.364254e+01 -5.031920e+00 -2.152667e+00 2.395346e+00 -4.967370e+00 -4.493148e+00 -7.824757e+00 1.643080e+01 -4.973761e-01 3.753218e+00 3.261214e+00 3.599008e+00 -1.905358e+00 -3.174398e+00 5.871360e-01 1.332862e-01 -1.526564e+00 8.227955e-01 4.731143e-01 9.937455e-01 -3.819329e+00 -7.143709e-01 6.575257e-01 9.785497e-01 1.233791e+00 1.751694e-01 -3.279416e-01 -5.137398e-02 -7.511191e-01 -5.001912e-01 3.631212e-01 1.941417e-01 1.184603e-01 -9.388334e-01
<VARIANCE> 39
 3.975863e+01 1.208828e+02 1.218836e+02 1.905706e+02 1.665059e+02 2.648448e+02 2.499004e+02 2.086200e+02 1.811212e+02 2.008741e+02 1.951397e+02 1.454557e+02 7.293108e+01 4.482748e+00 8.679824e+00 1.131564e+01 1.534250e+01 1.311659e+01 1.381314e+01 1.417639e+01 1.788609e+01 1.762568e+01 1.305095e+01 1.174118e+01 9.751850e+00 7.726897e+00 8.330482e-01 1.344603e+00 1.555668e+00 2.225899e+00 1.973898e+00 2.803073e+00 2.255715e+00 2.601938e+00 2.435995e+00 2.109361e+00 2.108196e+00 1.763414e+00 9.829364e-01
<GCONST> 1.763538e+02
<TRANSP> 5
 0.000000e+00 1.000000e+00 0.000000e+00 0.000000e+00 0.000000e+00
 0.000000e+00 6.891055e-01 3.108946e-01 0.000000e+00 0.000000e+00
 0.000000e+00 0.000000e+00 8.325533e-01 1.674467e-01 0.000000e+00
 0.000000e+00 0.000000e+00 0.000000e+00 6.185343e-01 3.814656e-01
 0.000000e+00 0.000000e+00 0.000000e+00 0.000000e+00 0.000000e+00
<ENDHMM>
~h "ae"
<BEGINHMM>
<NUMSTATES> 5
<STATE> 2
<MEAN> 39
 1.064609e+01 -1.429814e+01 2.327535e+00 -7.654046e+00 -1.210538e+01 -2.799122e+00 7.130762e+00 8.327636e+00 -1.982162e+00 -7.271379e+00 -8.014806e+00 -4.144547e+00 2.021150e+01 1.274720e+00 -3.597198e+00 -7.551879e-01 -1.913515e+00 -9.358573e-01 7.366830e-01 6.358762e-01 1.287318e+00 -5.652738e-01 -1.650296e+00 -1.013995e+00 -6.173118e-01 3.482719e+00 -9.001303e-01 7.769231e-01 -1.209604e-01 7.646452e-01 1.010253e+00 4.873689e-01 -3.100311e-02 -5.444534e-01 7.644153e-02 3.412326e-01 4.644176e-01 2.937033e-01 -1.175960e+00
<VARIANCE> 39
 5.594276e+01 1.084823e+02 1.654613e+02 1.298320e+02 1.754608e+02 1.685799e+02 1.924676e+02 1.926409e+02 2.285504e+02 1.563285e+02 1.290286e+02 1.098213e+02 9.106085e+01 8.815664e+00 9.852209e+00 1.147762e+01 1.174047e+01 1.371416e+01 1.331023e+01 1.586349e+01 1.534123e+01 1.474928e+01 1.237729e+01 1.077868e+01 1.004434e+01 1.023208e+01 1.620504e+00 1.603423e+00 1.603587e+00 1.852422e+00 2.154251e+00 2.315297e+00 2.614996e+00 2.607469e+00 2.609252e+00 2.164855e+00 2.031716e+00 1.700211e+00 1.472156e+00
<GCONST> 1.769472e+02
<STATE> 3
<MEAN> 39
 1.158997e+01 -2.083603e+01 -2.149906e+00 -7.431773e+00 -6.598828e+00 2.436930e+00 7.182507e+00 7.376078e+00 -3.250367e+00 -1.176093e+01 -9.174610e+00 -3.795313e+00 2.436729e+01 1.341574e-01 7.035164e-03 -4.668402e-01 1.939428e-01 6.986034e-01 7.619459e-03 -4.311506e-01 -5.588298e-02 1.413054e-01 -1.918810e-01 -1.720070e-01 5.951664e-02 -1.794507e-01 4.086414e-02 7.006370e-01 1.520030e-01 2.129459e-01 3.282495e-02 -3.024027e-01 -2.753993e-01 -1.426525e-01 8.089001e-02 3.372481e-01 8.004185e-02 -1.154827e-02 -5.659182e-01
<VARIANCE> 39
 4.108819e+01 9.937035e+01 1.733721e+02 1.196546e+02 1.780485e+02 1.597883e+02 1.563369e+02 1.853869e+02 2.400405e+02 1.500721e+02 1.186049e+02 1.241638e+02 5.477758e+01 1.206791e+00 3.627713e+00 4.311656e+00 3.860969e+00 6.045932e+00 5.973786e+00 6.565733e+00 6.502410e+00 6.094959e+00 5.880867e+00 4.914596e+00 4.425714e+00 1.219403e+00 2.681589e-01 6.779670e-01 6.743208e-01 8.206321e-01 9.450001e-01 9.110426e-01 1.071233e+00 1.212060e+00 1.035975e+00 1.004320e+00 9.002454e-01 8.305947e-01 4.299214e-01
<GCONST> 1.497612e+02
<STATE> 4
<MEAN> 39
 1.364789e+01 -1.366010e+01 -2.765776e+00 -4.879667e+00 -5.384651e+00 -3.831957e+00 2.309472e+00 7.972951e+00 -2.207610e-01 -7.789765e+00 -9.697025e+00 -4.040092e+00 1.836207e+01 -5.505629e-01 4.932296e+00 1.491875e+00 2.761331e+00 1.135624e+00 -5.584525e-01 -1.074718e+00 -1.633526e+00 -1.414661e-01 1.708948e+00 9.304721e-01 2.119423e-01 -4.830245e+00 -9.671289e-01 9.451032e-01 3.887628e-01 8.174701e-01 4.998671e-01 6.229724e-01 3.699888e-01 -6.512353e-01 -2.203173e-01 1.777299e-01 4.547392e-01 1.321281e-01 -1.179138e+00
<VARIANCE> 39
 4.305584e+01 1.098693e+02 1.796253e+02 1.278655e+02 1.742592e+02 1.821066e+02 2.103746e+02 2.031516e+02 2.400598e+02 1.967406e+02 1.511217e+02 1.426168e+02 8.057501e+01 7.701838e+00 9.835971e+00 1.100252e+01 1.260971e+01 1.365107e+01 1.416498e+01 1.579514e+01 1.907199e+01 1.695408e+01 1.344918e+01 1.252337e+01 1.099811e+01 9.047477e+00 1.532237e+00 1.808767e+00 2.002749e+00 1.953341e+00 2.414594e+00 2.464076e+00 2.529092e+00 3.288417e+00 3.084065e+00 2.573733e+00 2.435934e+00 1.915244e+00 1.289555e+00
<GCONST> 1.792800e+02
<TRANSP> 5
 0.000000e+00 1.000000e+00 0.000000e+00 0.000000e+00 0.000000e+00
 0.000000e+00 6.269609e-01 3.730392e-01 0.000000e+00 0.000000e+00
 0.000000e+00 0.000000e+00 8.288378e-01 1.711622e-01 0.000000e+00
 0.000000e+00 0.000000e+00 0.000000e+00 6.505209e-01 3.494792e-01
 0.000000e+00 0.000000e+00 0.000000e+00 0.000000e+00 0.000000e+00
<ENDHMM>
~h "ah"
<BEGINHMM>
<NUMSTATES> 5
<STATE> 2
<MEAN> 39
 1.335269e+01 -3.987167e+00 8.661932e-01 -7.853657e+00 -6.169508e+00 -4.496598e+00 -7.918079e+00 5.744187e-01 2.172720e+00 -1.817136e+00 -6.132535e+00 -2.505218e+00 1.440442e+01 3.259158e+00 -2.167967e+00 -6.197491e-01 -2.787163e+00 -1.319389e+00 -2.213274e-01 -2.168010e+00 4.918398e-01 3.242950e-01 -4.695709e-01 -1.240015e+00 -8.336470e-01 2.205621e+00 -1.489772e+00 9.340140e-01 7.360707e-02 1.114958e+00 1.037879e+00 6.982999e-01 8.474033e-01 -3.822894e-01 -3.603400e-01 2.170627e-01 5.960360e-01 2.000299e-01 -1.545436e+00
<VARIANCE> 39
 6.435472e+01 1.270842e+02 2.067150e+02 1.928358e+02 2.066105e+02 2.690974e+02 2.096772e+02 2.003479e+02 1.976263e+02 1.923592e+02 1.669207e+02 1.327291e+02 8.793717e+01 1.662545e+01 1.259524e+01 1.553312e+01 2.178649e+01 1.858151e+01 2.126812e+01 1.992320e+01 2.128529e+01 1.967518e+01 1.689373e+01 1.706496e+01 1.403489e+01 1.104166e+01 2.320026e+00 2.130474e+00 2.230155e+00 2.870914e+00 2.929323e+00 3.665278e+00 3.570106e+00 3.615234e+00 3.583467e+00 3.097392e+00 3.011628e+00 2.479603e+00 2.028369e+00
<GCONST> 1.882744e+02
<STATE> 3
<MEAN> 39
 1.476898e+01 -7.909224e+00 -3.337913e+00 -1.069144e+01 -1.249961e+00 4.545515e-01 -8.857613e+00 1.918571e+00 3.975598e+00 -3.434810e+00 -7.482157e+00 -3.988364e+00 1.625343e+01 6.457253e-02 1.322290e+00 3.879471e-01 8.786936e-01 5.789546e-01 -6.680007e-02 -1.339419e-01 -6.955592e-01 -4.884893e-01 -2.696352e-04 -3.096635e-03 7.245766e-02 -1.517322e+00 -8.141897e-01 1.331302e+00 4.076764e-01 1.291893e+00 5.325377e-01 1.086518e-01 5.930862e-01 -6.707571e-01 -5.048623e-01 1.065273e-01 3.706883e-01 1.320316e-01 -1.464207e+00
<VARIANCE> 39
 4.574266e+01 1.134263e+02 2.177253e+02 1.914495e+02 2.566274e+02 3.157689e+02 2.026847e+02 2.068883e+02 1.978069e+02 2.245282e+02 1.717505e+02 1.506548e+02 8.214288e+01 4.135085e+00 7.526922e+00 8.419574e+00 1.179624e+01 1.085751e+01 1.162541e+01 1.075680e+01 1.236127e+01 1.105159e+01 1.012111e+01 1.000870e+01 8.713506e+00 6.644137e+00 1.765064e+00 1.549724e+00 1.736554e+00 2.403960e+00 2.597344e+00 2.967834e+00 2.862938e+00 3.049649e+00 2.740943e+00 2.451974e+00 2.299716e+00 2.023137e+00 1.291282e+00
<GCONST> 1.772730e+02
<STATE> 4
<MEAN> 39
 1.378569e+01 2.142342e+00 2.836886e+00 -3.079522e+00 -2.849357e+00 -3.857704e+00 -8.665979e+00 -2.728659e+00 2.670379e-01 -1.715180e+00 -4.968621e+00 -1.479865e+00 6.554508e+00 -2.118367e+00 4.575759e+00 1.168401e+00 4.121139e+00 2.558542e+00 1.211661e+00 1.767711e+00 -2.237139e+00 -1.579123e+00 -2.822298e-01 5.746405e-01 -1.068426e-01 -5.446206e+00 -1.269384e+00 1.424748e-01 -1.989235e-01 4.179609e-01 4.954408e-01 5.111631e-01 8.551424e-01 1.636225e-01 2.549986e-02 7.485364e-02 2.556070e-01 -4.384506e-02 -5.380568e-01
<VARIANCE> 39
 6.062573e+01 1.073072e+02 1.976018e+02 2.515553e+02 2.043475e+02 2.604648e+02 1.771410e+02 2.020595e+02 1.898068e+02 2.096310e+02 1.699713e+02 1.391122e+02 9.428886e+01 1.168568e+01 1.127873e+01 1.356231e+01 1.932120e+01 1.836767e+01 1.928477e+01 1.864496e+01 2.016516e+01 1.948178e+01 1.683687e+01 1.558299e+01 1.373140e+01 1.298016e+01 1.705999e+00 1.915492e+00 2.152607e+00 3.157092e+00 2.548173e+00 3.022322e+00 2.594526e+00 3.362983e+00 3.007681e+00 2.987991e+00 2.773770e+00 2.190973e+00 1.437233e+00
<GCONST> 1.854907e+02
<TRANSP> 5
 0.000000e+00 1.000000e+00 0.000000e+00 0.000000e+00 0.000000e+00
 0.000000e+00 3.031532e-01 6.968468e-01 0.000000e+00 0.000000e+00
 0.000000e+00 0.000000e+00 5.793422e-01 4.206578e-01 0.000000e+00
 0.000000e+00 0.000000e+00 0.000000e+00 2.847847e-01 7.152153e-01
 0.000000e+00 0.000000e+00 0.000000e+00 0.000000e+00 0.000000e+00
<ENDHMM>
~h "ao"
<BEGINHMM>
<NUMSTATES> 5
<STATE> 2
<MEAN> 39
 2.221754e+01 2.745430e+00 -1.576201e+01 -2.320455e+01 -8.706661e+00 1.151466e+01 1.125060e+00 -1.980371e+00 -6.377235e+00 -2.314965e+00 -6.598933e-01 -4.452441e+00 1.080356e+01 3.083113e+00 -1.388413e+00 -2.782360e+00 -4.051690e+00 -8.522997e-01 1.712539e+00 -4.476636e-02 -2.467061e-02 -1.260206e+00 -7.079447e-01 8.573428e-01 -2.337501e-01 2.622711e+00 -1.314677e+00 -4.578900e-01 2.178837e-01 1.412230e+00 1.119356e+00 -1.163410e-01 -2.977134e-03 9.869774e-02 2.704309e-01 2.458393e-01 4.128176e-01 4.083982e-01 -4.565481e-01
<VARIANCE> 39
 6.552958e+01 1.890431e+02 1.256419e+02 2.166703e+02 2.954106e+02 2.440094e+02 2.523235e+02 2.120971e+02 2.202833e+02 2.156773e+02 1.895048e+02 1.519996e+02 9.399950e+01 1.303099e+01 1.123143e+01 1.112369e+01 2.240373e+01 2.583666e+01 2.114032e+01 1.760075e+01 1.854649e+01 2.000457e+01 1.774003e+01 1.592156e+01 1.443101e+01 8.102007e+00 1.805752e+00 2.150272e+00 1.756858e+00 2.998621e+00 3.149252e+00 2.794219e+00 3.168862e+00 3.299183e+00 3.581652e+00 3.049125e+00 2.743881e+00 2.158057e+00 1.150270e+00
<GCONST> 1.868129e+02
<STATE> 3
<MEAN> 39
 2.223639e+01 -5.856194e+00 -2.127930e+01 -2.957629e+01 1.760608e+00 2.241207e+01 4.851531e-01 -5.454322e+00 -3.751246e+00 -5.383501e+00 9.540485e-01 -4.237423e+00 1.713190e+01 7.942962e-02 -6.264220e-01 -6.783955e-01 5.784657e-01 1.045251e+00 -1.843615e-01 -5.923653e-01 1.882188e-02 1.779906e-02 6.450814e-02 4.531556e-01 -1.881777e-02 2.483945e-01 -1.330376e-01 2.022097e-01 2.584188e-01 6.163904e-01 4.387630e-02 -6.232048e-01 -3.068298e-01 1.200013e-01 1.649224e-01 1.830024e-01 -1.373121e-01 -8.511603e-02 -2.584750e-01
<VARIANCE> 39
 5.023527e+01 1.582549e+02 1.080216e+02 2.610153e+02 3.188935e+02 2.667307e+02 2.727008e+02 2.119321e+02 2.011770e+02 2.092558e+02 1.681373e+02 1.652069e+02 6.280071e+01 8.908494e-01 4.692118e+00 3.920548e+00 6.571965e+00 7.359746e+00 7.818870e+00 7.851742e+00 7.267522e+00 6.599151e+00 7.346724e+00 7.118341e+00 6.471907e+00 1.296608e+00 2.181594e-01 5.429835e-01 6.049854e-01 9.349461e-01 1.080650e+00 1.097579e+00 1.227923e+00 1.189619e+00 1.292718e+00 1.203766e+00 1.123153e+00 1.050752e+00 2.494093e-01
<GCONST> 1.560534e+02
<STATE> 4
<MEAN> 39
 2.456364e+01 -8.093566e+00 -2.568195e+01 -1.628183e+01 4.279037e+00 8.693697e+00 -7.630019e+00 -4.430324e-01 -6.843689e+00 -6.040102e-01 5.059475e+00 -4.884112e+00 1.654193e+01 -4.720581e-01 -2.070881e-01 5.070442e-01 4.306675e+00 1.747254e+00 -3.591624e+00 -2.855757e+00 1.041703e+00 1.924841e+00 1.007316e+00 -9.604931e-01 -4.781902e-01 -8.769854e-01 -5.165949e-01 6.277622e-01 1.041427e+00 6.018693e-01 -4.337716e-01 -4.392402e-01 2.960656e-01 1.867159e-01 3.914107e-01 -3.426367e-01 -6.567889e-01 2.013236e-01 -6.475818e-01
<VARIANCE> 39
 5.514479e+01 1.076151e+02 1.457632e+02 2.025336e+02 2.136365e+02 2.666956e+02 2.991970e+02 2.533580e+02 2.955647e+02 3.026970e+02 2.934869e+02 2.723997e+02 5.192785e+01 2.727876e+00 1.355958e+01 1.108371e+01 1.082912e+01 1.732249e+01 1.280484e+01 2.139584e+01 1.638925e+01 1.732410e+01 1.566106e+01 1.411219e+01 1.388818e+01 5.459614e+00 8.560220e-01 9.833524e-01 1.164639e+00 1.736645e+00 2.227141e+00 2.255141e+00 2.796504e+00 2.835536e+00 2.931075e+00 3.319549e+00 3.218543e+00 2.889998e+00 5.306678e-01
<GCONST> 1.798126e+02
<TRANSP> 5
 0.000000e+00 1.000000e+00 0.000000e+00 0.000000e+00 0.000000e+00
 0.000000e+00 7.122989e-01 2.877011e-01 0.000000e+00 0.000000e+00
 0.000000e+00 0.000000e+00 8.135015e-01 1.864985e-01 0.000000e+00
 0.000000e+00 0.000000e+00 0.000000e+00 6.269462e-01 3.730538e-01
 0.000000e+00 0.000000e+00 0.000000e+00 0.000000e+00 0.000000e+00
<ENDHMM>
~h "aw"
<BEGINHMM>
<NUMSTATES> 5
<STATE> 2
<MEAN> 39
 1.319837e+01 -1.907033e+01 -6.382046e+00 -8.393883e+00 -4.262329e+00 1.160822e+00 4.084471e+00 6.346890e+00 4.820251e-01 -7.403838e+00 -1.085593e+01 -7.072102e+00 2.424920e+01 9.514551e-01 -3.478802e+00 -2.290333e+00 -1.368902e+00 1.395448e+00 1.850484e+00 -1.940955e-01 1.139408e-01 3.288596e-01 -1.525941e+00 -1.173633e+00 -9.258632e-01 2.241998e+00 -7.228562e-01 9.952791e-01 1.612792e-01 7.206167e-01 9.080088e-01 4.488755e-01 -1.219046e-01 -7.240411e-01 -1.753432e-02 3.967375e-01 5.750572e-01 3.507384e-01 -1.192856e+00
<VARIANCE> 39
 4.779211e+01 8.486810e+01 1.517212e+02 1.282465e+02 1.701137e+02 1.758013e+02 1.831145e+02 1.927195e+02 2.578381e+02 2.015823e+02 1.284805e+02 1.477165e+02 5.269925e+01 6.208431e+00 8.687077e+00 7.483383e+00 1.219501e+01 1.213715e+01 1.131809e+01 1.578215e+01 1.437685e+01 1.364913e+01 1.196606e+01 1.143404e+01 1.064936e+01 6.329924e+00 1.452746e+00 1.293525e+00 1.371482e+00 1.989057e+00 2.154116e+00 2.210140e+00 2.522290e+00 2.601669e+00 2.565536e+00 2.163886e+00 2.047667e+00 1.842124e+00 9.295790e-01
<GCONST> 1.739491e+02
<STATE> 3
<MEAN> 39
 1.608149e+01 -2.139159e+01 -1.528707e+01 -1.127091e+01 8.488116e+00 1.313279e+01 -2.488912e+00 -1.626563e+00 4.548139e+00 -7.228200e+00 -1.028790e+01 -8.932490e+00 2.342107e+01 5.186161e-01 9.220042e-01 -8.748644e-01 -1.114658e+00 8.446904e-01 1.228007e+00 -1.045427e+00 -1.081841e+00 3.910212e-01 9.471611e-01 6.617696e-01 -3.841786e-01 -6.858802e-01 1.599906e-02 5.105183e-01 2.586172e-01 2.918024e-04 -4.346741e-01 -3.471760e-01 1.916228e-02 1.054739e-01 -1.238576e-01 2.205778e-01 2.069575e-01 1.210911e-01 -2.901904e-01
<VARIANCE> 39
 4.052705e+01 7.791526e+01 1.012584e+02 1.767579e+02 1.474153e+02 1.712279e+02 2.327959e+02 1.697171e+02 1.831957e+02 2.031096e+02 1.358945e+02 1.573940e+02 5.087057e+01 9.530205e-01 3.444592e+00 3.139984e+00 5.232290e+00 6.561124e+00 6.262401e+00 6.841788e+00 6.617632e+00 7.030391e+00 5.755711e+00 6.046036e+00 5.289953e+00 8.369101e-01 1.663781e-01 4.374696e-01 5.078919e-01 8.226975e-01 8.049973e-01 9.429393e-01 1.114791e+00 1.009782e+00 1.072395e+00 9.380839e-01 8.861157e-01 8.977548e-01 1.655416e-01
<GCONST> 1.475044e+02
<STATE> 4
<MEAN> 39
 1.984378e+01 -6.872058e+00 -1.644698e+01 -1.876387e+01 2.948194e+00 1.383611e+01 -5.774835e+00 -6.436822e+00 2.977975e+00 2.753005e+00 -1.636026e+00 -9.215744e+00 1.422948e+01 -9.081027e-01 3.427425e+00 1.917610e+00 2.607353e+00 -1.135999e+00 -2.410890e+00 -1.765513e-01 -3.434783e-01 -8.215911e-01 8.287295e-01 8.135427e-01 9.989595e-01 -3.278036e+00 -8.945284e-01 1.809515e-01 5.759081e-01 1.262793e+00 3.610658e-01 -4.511193e-01 4.123935e-01 1.362082e-01 -1.203617e-01 -3.793041e-01 -2.799469e-01 2.077533e-01 -5.702421e-01
<VARIANCE> 39
 4.323474e+01 1.247954e+02 1.087887e+02 2.069745e+02 1.959495e+02 2.109258e+02 2.474566e+02 1.737706e+02 2.035683e+02 2.412938e+02 2.188457e+02 1.458734e+02 8.753709e+01 6.449583e+00 1.117028e+01 9.312520e+00 1.982583e+01 1.438386e+01 1.423009e+01 1.445246e+01 1.434914e+01 1.470191e+01 1.458767e+01 1.375025e+01 1.153018e+01 8.570633e+00 1.125143e+00 1.622475e+00 1.336880e+00 2.252961e+00 2.293718e+00 2.521788e+00 2.669576e+00 2.593380e+00 2.471850e+00 2.574549e+00 2.430995e+00 1.975695e+00 1.010378e+00
<GCONST> 1.787949e+02
<TRANSP> 5
 0.000000e+00 1.000000e+00 0.000000e+00 0.000000e+00 0.000000e+00
 0.000000e+00 7.170662e-01 2.829338e-01 0.000000e+00 0.000000e+00
 0.000000e+00 0.000000e+00 8.681197e-01 1.318804e-01 0.000000e+00
 0.000000e+00 0.000000e+00 0.000000e+00 7.808059e-01 2.191940e-01
 0.000000e+00 0.000000e+00 0.000000e+00 0.000000e+00 0.000000e+00
<ENDHMM>
~h "ay"
<BEGINHMM>
<NUMSTATES> 5
<STATE> 2
<MEAN> 39
 1.775456e+01 -1.735337e+01 -1.639389e+01 -1.525098e+01 6.180938e+00 1.403193e+01 -3.031251e+00 -3.167970e+00 3.763970e+00 -2.970345e+00 -7.966034e+00 -1.108377e+01 2.213841e+01 9.282616e-01 -3.927235e+00 -8.856816e-01 -1.401257e+00 2.951180e-01 5.524241e-01 -4.972646e-01 7.937253e-01 1.039574e+00 -1.273231e+00 -1.530421e+00 -1.140006e+00 3.006064e+00 -1.280070e+00 9.447081e-01 1.098706e+00 1.385812e+00 -1.193259e-01 -8.481981e-01 4.382845e-01 3.253072e-01 -1.978793e-01 -9.634981e-02 4.100756e-01 8.538772e-01 -1.222560e+00
<VARIANCE> 39
 4.632453e+01 9.971445e+01 1.169119e+02 1.787877e+02 1.620378e+02 2.324990e+02 2.243774e+02 2.188204e+02 1.779925e+02 2.175849e+02 1.835829e+02 1.429073e+02 5.753286e+01 1.086905e+01 9.277690e+00 1.403490e+01 1.906748e+01 1.592864e+01 1.936826e+01 1.494232e+01 1.877461e+01 1.397787e+01 1.203613e+01 1.283178e+01 1.250408e+01 7.945298e+00 2.057172e+00 1.490197e+00 1.518156e+00 2.493055e+00 2.503767e+00 2.573878e+00 2.531292e+00 3.430913e+00 2.558898e+00 2.386230e+00 2.805648e+00 2.086439e+00 9.658533e-01
<GCONST> 1.800578e+02
<STATE> 3
<MEAN> 39
 1.563548e+01 -2.268322e+01 -1.249995e+01 -1.002860e+01 5.839541e+00 8.737190e+00 -1.762394e+00 2.821019e+00 4.152957e+00 -9.219810e+00 -1.085284e+01 -7.890684e+00 2.379334e+01 -5.591860e-01 2.020496e-01 2.073416e+00 8.149299e-01 -2.278741e+00 -2.251274e+00 1.071283e+00 1.797395e+00 -5.654416e-01 -6.545097e-01 1.764762e-01 8.437420e-01 -4.471733e-02 -8.634544e-03 6.269348e-01 3.534356e-01 -1.025437e-01 -4.764322e-01 -1.870169e-01 3.656678e-02 -1.679050e-01 -3.207068e-01 3.782922e-01 3.867327e-01 5.589697e-02 -3.170057e-01
<VARIANCE> 39
 3.849525e+01 7.989114e+01 1.283148e+02 1.365944e+02 2.075849e+02 2.344216e+02 2.471813e+02 2.260498e+02 2.095064e+02 1.950097e+02 1.248841e+02 1.445513e+02 4.687937e+01 9.475627e-01 3.498348e+00 4.902203e+00 5.412937e+00 9.582983e+00 8.452976e+00 9.663627e+00 9.103573e+00 7.909889e+00 6.920110e+00 7.072253e+00 6.395372e+00 7.615820e-01 1.605794e-01 5.355022e-01 5.270714e-01 7.387311e-01 1.001376e+00 1.046345e+00 1.309628e+00 1.581463e+00 1.273699e+00 1.264494e+00 1.205241e+00 1.138034e+00 2.062239e-01
<GCONST> 1.529520e+02
<STATE> 4
<MEAN> 39
 1.086585e+01 -1.080672e+01 9.995603e+00 -8.479668e+00 -1.870671e+01 -7.848207e+00 4.168561e+00 6.832243e+00 -5.588551e+00 -3.618685e+00 -3.507225e+00 -3.526156e+00 1.912107e+01 -6.147618e-01 4.205562e+00 2.618809e+00 1.792937e+00 -6.479967e-01 -9.412183e-01 -8.091204e-01 -2.269923e+00 -1.305435e+00 1.674382e+00 1.248379e+00 4.912295e-01 -3.349792e+00 -2.807595e-01 4.018240e-01 -9.640061e-01 8.448339e-01 1.738684e+00 7.686605e-01 -2.252862e-01 -5.201557e-01 4.421801e-01 -2.362928e-01 -3.384128e-01 -9.176634e-02 -8.516479e-01
<VARIANCE> 39
 4.206217e+01 1.151676e+02 1.702735e+02 1.613413e+02 1.433048e+02 1.869068e+02 1.745392e+02 2.159492e+02 2.153077e+02 1.649511e+02 1.491284e+02 1.001444e+02 7.024358e+01 4.047623e+00 6.882866e+00 1.118639e+01 1.583758e+01 2.224737e+01 1.266869e+01 1.366660e+01 1.388897e+01 1.615039e+01 1.385720e+01 1.260568e+01 1.040613e+01 6.994647e+00 1.181530e+00 1.279479e+00 1.667911e+00 2.160328e+00 2.019650e+00 2.418930e+00 2.793365e+00 3.426007e+00 2.662214e+00 2.497071e+00 2.230763e+00 1.734931e+00 7.614264e-01
<GCONST> 1.755967e+02
<TRANSP> 5
 0.000000e+00 1.000000e+00 0.000000e+00 0.000000e+00 0.000000e+00
 0.000000e+00 6.673580e-01 3.326420e-01 0.000000e+00 0.000000e+00
 0.000000e+00 0.000000e+00 8.492687e-01 1.507313e-01 0.000000e+00
 0.000000e+00 0.000000e+00 0.000000e+00 7.731912e-01 2.268088e-01
 0.000000e+00 0.000000e+00 0.000000e+00 0.000000e+00 0.000000e+00
<ENDHMM>
~h "ch"
<BEGINHMM>
<NUMSTATES> 5
<STATE> 2
<MEAN> 39
 -1.292625e+01 2.363515e-01 7.636167e+00 3.022222e+00 3.131626e+00 5.807782e+00 1.341928e+00 1.993362e-01 4.415453e+00 1.497979e+00 3.247715e+00 1.971351e+00 -1.148327e+01 -6.846109e+00 -1.730078e+00 -1.988657e-01 -2.591256e+00 7.556919e-01 3.688474e+00 1.490662e+00 5.970008e-01 1.957921e+00 1.250827e+00 1.616355e+00 8.739873e-01 2.115916e+00 -3.815804e-01 1.363233e-01 7.260773e-01 -4.293092e-01 -8.745164e-01 -4.423503e-01 -1.703036e-01 5.167414e-02 -4.043190e-01 -3.321983e-01 -1.783936e-01 -2.977249e-02 2.548270e+00
<VARIANCE> 39
 1.543499e+02 1.586088e+02 1.221737e+02 1.455991e+02 1.265444e+02 1.370787e+02 1.065430e+02 1.303079e+02 1.227214e+02 1.070883e+02 9.983024e+01 7.243596e+01 1.575629e+02 1.702672e+01 1.660231e+01 1.964633e+01 1.429953e+01 1.886185e+01 1.357146e+01 1.398331e+01 1.549655e+01 1.508305e+01 1.343760e+01 1.170874e+01 8.574164e+00 4.539288e+01 2.745935e+00 5.049064e+00 3.150192e+00 4.090100e+00 2.802653e+00 2.701822e+00 2.676470e+00 2.711368e+00 2.537289e+00 2.448015e+00 2.102864e+00 1.631637e+00 4.882228e+00
<GCONST> 1.840771e+02
<STATE> 3
<MEAN> 39
 -3.936376e+01 3.095423e+00 1.750378e+01 -2.873322e+00 2.326298e-01 1.425912e+01 7.870024e+00 2.274181e+00 6.666718e+00 1.779214e+00 6.691457e+00 4.252046e+00 1.167027e+01 -5.909261e-01 3.493270e-01 1.395785e+00 1.180660e+00 -1.193727e+00 -5.178196e-01 1.574612e+00 4.095812e-01 -2.501899e-01 -1.323394e-01 -2.243790e-01 1.883761e-01 1.894363e+00 2.526186e+00 -1.996727e-01 -5.290539e-01 6.525471e-01 -7.170405e-02 -1.019863e+00 -4.169570e-01 -6.220093e-02 -3.700439e-01 -1.560138e-01 -4.116367e-01 -2.243684e-01 -1.315863e+00
<VARIANCE> 39
 6.399372e+01 1.161238e+02 8.065591e+01 9.891113e+01 1.543638e+02 1.073331e+02 1.059870e+02 1.033885e+02 9.360177e+01 7.716645e+01 9.578765e+01 5.360114e+01 5.477647e+01 2.459065e+01 9.274782e+00 8.285121e+00 8.206701e+00 7.660650e+00 9.300179e+00 8.201530e+00 7.986000e+00 7.191408e+00 6.682936e+00 6.305266e+00 5.211708e+00 1.173280e+01 2.606251e+00 1.663306e+00 1.625870e+00 1.728303e+00 1.833175e+00 1.892511e+00 2.067780e+00 1.748675e+00 1.619174e+00 1.500772e+00 1.480061e+00 1.157648e+00 1.398164e+00
<GCONST> 1.647391e+02
<STATE> 4
<MEAN> 39
 -1.852038e+01 -1.367946e+00 1.636379e+01 7.999851e+00 -5.071933e+00 2.559851e+00 9.570029e+00 3.100433e+00 3.093324e+00 -7.226518e-01 9.391485e-01 2.633513e+00 8.637012e+00 9.438008e+00 -4.877961e-01 -2.046842e+00 2.419014e-01 -7.870657e-01 -3.931893e+00 -3.394623e+00 -4.404110e-01 -1.713430e+00 -1.322859e+00 -1.704935e+00 -1.251214e+00 -1.314773e+00 6.316352e-01 -2.662087e-01 -8.016961e-01 -1.232717e+00 2.785759e-02 5.630267e-02 -1.081488e+00 -1.871718e-01 -1.197262e-01 2.994801e-02 1.209169e-01 -1.634093e-01 2.558992e-01
<VARIANCE> 39
 2.353404e+02 1.123077e+02 1.239965e+02 1.482430e+02 1.570664e+02 1.907153e+02 1.501586e+02 1.349509e+02 1.265906e+02 1.057519e+02 1.032497e+02 7.335995e+01 6.915778e+01 1.702746e+01 1.023012e+01 1.407165e+01 1.550413e+01 2.133767e+01 2.096660e+01 1.957731e+01 1.811160e+01 1.791256e+01 1.340969e+01 1.476786e+01 1.001227e+01 1.103584e+01 4.873940e+00 1.762541e+00 1.956001e+00 2.051001e+00 2.711129e+00 3.259613e+00 3.353756e+00 2.895872e+00 2.663829e+00 2.362386e+00 2.152238e+00 1.831397e+00 2.120032e+00
<GCONST> 1.819269e+02
<TRANSP> 5
 0.000000e+00 1.000000e+00 0.000000e+00 0.000000e+00 0.000000e+00
 0.000000e+00 7.144835e-01 2.855165e-01 0.000000e+00 0.000000e+00
 0.000000e+00 0.000000e+00 7.998835e-01 2.001165e-01 0.000000e+00
 0.000000e+00 0.000000e+00 0.000000e+00 6.670508e-01 3.329492e-01
 0.000000e+00 0.000000e+00 0.000000e+00 0.000000e+00 0.000000e+00
<ENDHMM>
~h "dh"
<BEGINHMM>
<NUMSTATES> 5
<STATE> 2
<MEAN> 39
 -1.352376e+00 1.204302e+01 2.855350e+00 1.274854e+01 5.724726e+00 1.739120e+00 -3.170259e-01 -5.824347e+00 -6.148602e-02 -8.690156e-01 -2.445846e+00 -2.873406e+00 -9.438213e+00 3.829798e-01 6.332544e-02 4.640562e-02 -7.438541e-02 -7.425388e-01 -5.378938e-01 2.603201e-01 6.436825e-01 6.413791e-01 -5.382897e-01 -6.152701e-02 4.614463e-01 3.410025e+00 1.011147e+00 -1.182595e+00 -2.134012e-02 -1.633747e+00 -1.506000e+00 -1.098306e+00 -7.402508e-01 4.680260e-01 4.353152e-01 2.752613e-01 -1.044716e-01 2.268398e-01 2.081977e+00
<VARIANCE> 39
 1.556213e+02 9.850310e+01 1.130224e+02 9.626967e+01 9.752798e+01 1.275976e+02 1.533408e+02 1.408882e+02 1.206167e+02 1.191012e+02 1.217781e+02 1.164978e+02 1.297618e+02 1.716017e+01 1.198431e+01 1.290049e+01 1.512299e+01 1.474943e+01 1.579667e+01 1.615541e+01 1.454775e+01 1.477070e+01 1.266267e+01 1.226492e+01 1.146366e+01 3.126304e+01 2.392659e+00 2.450625e+00 2.814655e+00 2.801199e+00 2.648870e+00 3.193744e+00 3.553013e+00 3.152758e+00 3.068801e+00 2.727785e+00 2.739580e+00 2.549236e+00 2.988052e+00
<GCONST> 1.826955e+02
<STATE> 3
<MEAN> 39
 -1.764186e+00 8.524807e+00 -8.824005e-01 8.389867e+00 4.820141e-01 -9.460029e-01 2.380850e+00 -1.802938e+00 4.268804e+00 -3.133790e-01 2.663585e-01 1.774029e+00 4.243289e+00 4.306630e+00 -1.730400e+00 1.373128e+00 -3.529759e+00 -4.339526e+00 -3.871664e+00 -2.898656e+00 9.032938e-01 9.316434e-01 -2.465705e-01 -1.287061e+00 2.020157e-01 7.528630e+00 8.815362e-01 -7.284213e-01 7.655588e-01 -9.478917e-01 -7.359696e-01 -5.581874e-01 -9.909494e-01 -7.730870e-02 -5.053247e-01 2.165685e-01 -3.738123e-01 -4.415991e-01 -3.931110e-01
<VARIANCE> 39
 1.224056e+02 8.647927e+01 1.009997e+02 8.303685e+01 9.327874e+01 1.361451e+02 1.596887e+02 1.230360e+02 1.071354e+02 1.012831e+02 1.195279e+02 9.522659e+01 7.905037e+01 1.630584e+01 1.379809e+01 2.013223e+01 1.591999e+01 1.715332e+01 1.962692e+01 2.253579e+01 2.204421e+01 2.230830e+01 1.768569e+01 1.670488e+01 1.499261e+01 1.291938e+01 1.976348e+00 2.095076e+00 2.303739e+00 2.194736e+00 2.004302e+00 3.033557e+00 3.185469e+00 2.647310e+00 2.497765e+00 2.422228e+00 2.989897e+00 2.021414e+00 2.231045e+00
<GCONST> 1.809689e+02
<STATE> 4
<MEAN> 39
 9.313012e+00 4.777636e+00 3.730942e+00 7.001607e-01 -9.076339e+00 -1.078297e+01 -7.394330e+00 -1.255793e+00 5.422221e+00 -8.099847e-02 -4.159556e+00 2.783796e-01 1.385448e+01 3.981262e+00 -3.334493e+00 1.927450e+00 -4.361967e+00 -4.418925e+00 -3.465168e+00 -3.205122e+00 1.029952e+00 -1.190812e-01 8.928972e-02 -1.226772e+00 -4.033408e-01 5.201571e+00 -7.773727e-01 -8.604768e-03 1.482375e-01 5.284738e-01 8.918080e-01 1.058831e+00 5.417361e-01 -2.150595e-01 -8.366390e-01 8.572307e-02 2.929965e-01 -2.798430e-01 -2.065500e+00
<VARIANCE> 39
 4.576950e+01 7.933377e+01 1.194846e+02 1.071006e+02 1.316376e+02 1.215357e+02 1.538528e+02 1.473981e+02 1.479094e+02 1.290917e+02 9.962150e+01 1.146236e+02 7.120863e+01 1.300423e+01 1.297730e+01 1.868843e+01 1.739941e+01 1.715024e+01 2.356850e+01 2.571303e+01 2.280024e+01 2.365619e+01 1.826325e+01 2.065012e+01 1.550037e+01 9.111279e+00 1.686675e+00 1.529545e+00 1.895445e+00 2.181917e+00 2.015995e+00 2.178204e+00 2.615301e+00 2.710963e+00 2.501781e+00 2.290128e+00 2.054049e+00 2.053686e+00 1.822319e+00
<GCONST> 1.794326e+02
<TRANSP> 5
 0.000000e+00 1.000000e+00 0.000000e+00 0.000000e+00 0.000000e+00
 0.000000e+00 4.279501e-01 5.720500e-01 0.000000e+00 0.000000e+00
 0.000000e+00 0.000000e+00 1.847369e-01 8.152630e-01 0.000000e+00
 0.000000e+00 0.000000e+00 0.000000e+00 1.614233e-01 8.385767e-01
 0.000000e+00 0.000000e+00 0.000000e+00 0.000000e+00 0.000000e+00
<ENDHMM>
~h "eh"
<BEGINHMM>
<NUMSTATES> 5
<STATE> 2
<MEAN> 39
 1.308161e+01 -1.082633e+01 1.912461e+00 -8.058304e+00 -1.284433e+01 -9.019037e+00 -2.441232e+00 7.354598e+00 2.739869e+00 -2.847722e+00 -7.111659e+00 -3.779173e+00 2.122173e+01 2.708835e+00 -4.830684e+00 -5.451729e-01 -3.027867e+00 -2.212837e+00 -9.552411e-01 -4.657183e-01 2.536028e+00 2.671151e-01 -1.354491e+00 -1.474155e+00 -1.192243e+00 3.733146e+00 -1.684100e+00 9.270602e-01 -2.726080e-01 8.355154e-01 1.294241e+00 9.147789e-01 7.726946e-01 -2.878981e-01 -2.153595e-01 1.423314e-01 5.894571e-01 3.724460e-01 -1.229158e+00
<VARIANCE> 39
 5.031490e+01 1.058858e+02 1.592241e+02 1.309756e+02 1.506979e+02 1.589861e+02 2.082527e+02 1.635745e+02 2.187761e+02 1.765694e+02 1.540630e+02 1.208109e+02 6.511806e+01 1.708333e+01 1.034256e+01 1.212597e+01 1.582190e+01 1.529958e+01 1.839868e+01 2.178100e+01 1.620864e+01 1.978372e+01 1.479398e+01 1.557371e+01 1.236903e+01 8.267731e+00 2.350898e+00 1.895961e+00 1.811403e+00 2.132643e+00 2.158811e+00 2.631534e+00 2.866864e+00 2.857821e+00 2.936150e+00 2.488179e+00 2.477323e+00 1.936725e+00 1.286218e+00
<GCONST> 1.807778e+02
<STATE> 3
<MEAN> 39
 1.293099e+01 -1.709294e+01 1.457922e-01 -9.856070e+00 -1.114956e+01 -7.045727e+00 2.033708e+00 1.244100e+01 1.083376e+00 -7.074710e+00 -8.371236e+00 -4.189831e+00 2.342144e+01 1.912964e-01 5.424984e-03 -4.309120e-01 3.613548e-01 7.136301e-01 -1.719553e-01 -2.529956e-01 2.758266e-01 -1.140779e-01 -3.566712e-01 -8.203099e-02 1.105610e-01 -4.064837e-01 -9.004693e-02 1.108931e+00 1.675262e-01 6.588511e-01 3.471825e-01 -1.280943e-01 -3.807927e-01 -6.552989e-01 -1.126777e-01 3.358603e-01 2.576988e-01 1.753655e-01 -9.333556e-01
<VARIANCE> 39
 4.451982e+01 8.013951e+01 1.355410e+02 1.260048e+02 1.476288e+02 1.809467e+02 1.947874e+02 1.565052e+02 2.747555e+02 1.707493e+02 1.427962e+02 1.310508e+02 5.651107e+01 1.655712e+00 4.330572e+00 6.178513e+00 5.108964e+00 6.517677e+00 7.380095e+00 8.651429e+00 7.826602e+00 7.261038e+00 6.962831e+00 5.924161e+00 5.365780e+00 1.859172e+00 5.199757e-01 1.055806e+00 9.125023e-01 1.239638e+00 1.237619e+00 1.312299e+00 1.537125e+00 1.591778e+00 1.607064e+00 1.329176e+00 1.216083e+00 1.177335e+00 7.222176e-01
<GCONST> 1.579565e+02
<STATE> 4
<MEAN> 39
 1.438268e+01 -1.065455e+01 2.921779e-01 -5.541462e+00 -8.511835e+00 -1.016032e+01 -3.616006e+00 8.710097e+00 1.302694e+00 -4.355793e+00 -7.686636e+00 -3.226558e+00 1.767472e+01 -1.142513e+00 5.085137e+00 1.103603e+00 3.834933e+00 2.203099e+00 2.971166e-01 -4.379009e-01 -2.666728e+00 -8.895977e-01 7.216765e-01 9.502400e-01 5.793542e-01 -5.159406e+00 -1.131477e+00 9.139510e-01 -1.590805e-02 6.511954e-01 6.708771e-01 8.455747e-01 6.119769e-01 -4.890817e-01 4.117026e-03 1.226423e-01 3.384629e-01 -2.684202e-02 -9.937833e-01
<VARIANCE> 39
 4.631455e+01 1.114712e+02 1.696174e+02 1.452652e+02 1.627364e+02 1.867734e+02 2.288838e+02 2.109115e+02 2.559801e+02 2.031693e+02 1.756794e+02 1.496862e+02 8.231056e+01 9.686377e+00 1.025293e+01 1.274847e+01 1.371075e+01 1.381776e+01 1.600611e+01 1.807956e+01 1.866107e+01 1.921963e+01 1.416872e+01 1.335406e+01 1.263870e+01 1.030888e+01 1.619848e+00 1.950998e+00 2.027761e+00 2.331351e+00 2.332650e+00 2.551841e+00 2.587297e+00 3.459358e+00 3.528634e+00 2.645971e+00 2.564502e+00 2.124527e+00 1.491166e+00
<GCONST> 1.819510e+02
<TRANSP> 5
 0.000000e+00 1.000000e+00 0.000000e+00 0.000000e+00 0.000000e+00
 0.000000e+00 5.514521e-01 4.485479e-01 0.000000e+00 0.000000e+00
 0.000000e+00 0.000000e+00 7.583543e-01 2.416457e-01 0.000000e+00
 0.000000e+00 0.000000e+00 0.000000e+00 5.550796e-01 4.449204e-01
 0.000000e+00 0.000000e+00 0.000000e+00 0.000000e+00 0.000000e+00
<ENDHMM>
~h "er"
<BEGINHMM>
<NUMSTATES> 5
<STATE> 2
<MEAN> 39
 2.221886e+01 -8.833542e+00 -1.028405e+01 2.939792e+00 -1.615109e+00 -1.392104e+01 -1.613929e+01 4.211063e+00 4.178877e-02 -2.555787e+00 -6.862847e-01 -1.516367e+00 1.236123e+01 4.814248e+00 -2.437306e+00 -3.371049e+00 -2.979319e-01 3.570340e-01 -3.907897e+00 -4.496425e+00 2.563058e+00 2.300956e-01 -1.158676e+00 2.673730e-01 4.954786e-02 1.551522e+00 -1.950893e+00 5.072784e-01 6.868038e-01 3.790753e-01 5.011656e-01 9.460439e-01 1.067108e+00 -2.906024e-02 2.549276e-01 2.040204e-01 1.321742e-01 2.796196e-01 -7.443463e-01
<VARIANCE> 39
 6.402859e+01 1.031368e+02 2.959493e+02 1.548242e+02 2.639075e+02 2.323414e+02 2.395632e+02 2.032316e+02 2.199497e+02 1.614730e+02 1.362504e+02 1.347194e+02 6.134930e+01 1.777658e+01 1.025038e+01 1.621760e+01 1.492056e+01 1.982475e+01 2.005143e+01 2.377157e+01 1.976908e+01 2.243197e+01 1.518705e+01 1.322085e+01 1.233641e+01 6.099630e+00 2.478368e+00 1.972212e+00 2.893771e+00 2.255855e+00 3.104148e+00 3.310275e+00 3.682960e+00 3.106766e+00 3.042671e+00 2.552942e+00 2.342311e+00 2.042613e+00 9.397293e-01
<GCONST> 1.847825e+02
<STATE> 3
<MEAN> 39
 2.479280e+01 -1.203343e+01 -1.540809e+01 6.013397e+00 3.244647e+00 -1.978124e+01 -2.057946e+01 1.250851e+01 3.947785e+00 -4.787876e+00 -2.595550e-01 -1.803002e-01 1.209015e+01 -1.883108e-01 1.943013e-01 6.074487e-01 7.153521e-01 -7.995347e-02 -4.631550e-01 -1.622646e-02 2.888438e-01 -4.790518e-03 -4.614714e-01 -1.077306e-01 2.515562e-01 -5.024306e-01 -7.646930e-01 5.716406e-01 9.084772e-01 4.825298e-02 -2.936129e-01 7.301458e-01 9.010680e-01 -6.872991e-01 -2.832533e-01 1.282281e-01 -6.913420e-02 -5.155888e-02 -4.045472e-01
<VARIANCE> 39
 3.945309e+01 9.047182e+01 2.472213e+02 1.295641e+02 2.614396e+02 2.355540e+02 3.073239e+02 2.385470e+02 2.676287e+02 1.589741e+02 1.258314e+02 1.259642e+02 5.381212e+01 1.776003e+00 3.977977e+00 8.592705e+00 5.472107e+00 9.870476e+00 8.418918e+00 9.776682e+00 1.003272e+01 8.179586e+00 7.412316e+00 6.542281e+00 5.648593e+00 1.949374e+00 1.178589e+00 1.009048e+00 1.143189e+00 1.129388e+00 1.589345e+00 1.901807e+00 2.350068e+00 1.982190e+00 1.761463e+00 1.421463e+00 1.248217e+00 1.081297e+00 5.219108e-01
<GCONST> 1.636118e+02
<STATE> 4
<MEAN> 39
 1.869911e+01 -6.615638e+00 -1.988177e+00 1.025471e+01 -3.337808e+00 -1.776717e+01 -1.437612e+01 6.066990e+00 1.203706e-01 -6.067145e+00 -1.713891e+00 1.336700e+00 6.796583e+00 -4.423646e+00 3.578852e+00 4.181046e+00 5.478398e-01 1.949273e-01 3.428918e+00 4.078186e+00 -2.826520e+00 -8.833856e-01 5.086284e-01 -4.009459e-01 -3.349909e-01 -2.924023e+00 -1.456364e+00 6.346243e-01 -4.991021e-02 -5.800778e-01 8.316342e-01 1.120784e+00 6.031224e-01 -1.855658e-01 1.254867e-01 5.420896e-01 1.690106e-01 -2.254364e-01 -3.990616e-01
<VARIANCE> 39
 7.412730e+01 1.151024e+02 2.688745e+02 1.821936e+02 2.709505e+02 2.049365e+02 2.596793e+02 2.294111e+02 2.330217e+02 1.712701e+02 1.440268e+02 1.264729e+02 9.482860e+01 1.479853e+01 1.337398e+01 1.463534e+01 1.681722e+01 2.437870e+01 2.026704e+01 2.318523e+01 1.967518e+01 1.971708e+01 1.495623e+01 1.326393e+01 1.074214e+01 1.145995e+01 2.406630e+00 2.251814e+00 2.804554e+00 2.816756e+00 3.660749e+00 3.179640e+00 3.723541e+00 3.585283e+00 2.999256e+00 2.620837e+00 2.394740e+00 1.967556e+00 1.385382e+00
<GCONST> 1.873488e+02
<TRANSP> 5
 0.000000e+00 1.000000e+00 0.000000e+00 0.000000e+00 0.000000e+00
 0.000000e+00 5.517443e-01 4.482557e-01 0.000000e+00 0.000000e+00
 0.000000e+00 0.000000e+00 7.772940e-01 2.227060e-01 0.000000e+00
 0.000000e+00 0.000000e+00 0.000000e+00 6.023282e-01 3.976718e-01
 0.000000e+00 0.000000e+00 0.000000e+00 0.000000e+00 0.000000e+00
<ENDHMM>
~h "ey"
<BEGINHMM>
<NUMSTATES> 5
<STATE> 2
<MEAN> 39
 1.034272e+01 -9.897077e+00 1.276910e+01 -8.932370e+00 -2.199294e+01 -1.037512e+01 -1.656665e-01 7.082128e+00 -2.717815e+00 -1.912934e+00 -1.211394e+00 -1.935567e+00 2.098736e+01 1.223142e-01 -1.609319e+00 2.572311e+00 -2.640618e+00 -4.066939e+00 -9.528859e-02 8.179226e-01 4.575561e-01 -1.657721e+00 3.484349e-01 1.056154e+00 -3.063569e-01 2.285492e+00 -7.748346e-01 1.007419e+00 -2.281064e-01 5.671631e-01 1.133303e+00 8.283165e-01 7.407515e-02 -9.080548e-01 -1.050347e-01 5.114026e-01 2.499882e-01 -2.943709e-02 -1.130710e+00
<VARIANCE> 39
 4.528649e+01 9.590491e+01 1.497171e+02 1.617310e+02 1.389981e+02 1.570318e+02 1.892197e+02 1.930442e+02 2.026626e+02 1.478268e+02 1.655220e+02 9.656499e+01 6.552690e+01 8.557595e+00 1.061939e+01 1.155815e+01 1.341709e+01 1.254727e+01 1.486492e+01 1.791390e+01 1.759544e+01 1.481250e+01 1.338646e+01 1.250436e+01 9.298273e+00 7.915431e+00 1.673964e+00 1.403047e+00 1.520946e+00 1.841651e+00 1.970453e+00 2.104198e+00 2.924769e+00 2.883075e+00 2.878984e+00 2.125419e+00 2.194500e+00 1.789607e+00 9.500360e-01
<GCONST> 1.760302e+02
<STATE> 3
<MEAN> 39
